{"learner":{"attributes":{"scikit_learn":"{\"_estimator_type\": \"classifier\"}"},"feature_names":["team1_elo","team2_elo","elo_diff","team1_bf","team1_l5_sr","team2_l5_sr","form_diff","team1_l5_ec","team2_l5_ec","eco_diff","team1_chase_wr","team2_chase_wr","team1_star_power","team2_star_power","team1_in_form_count","team2_in_form_count","h2h_diff","team1_is_home","team2_is_home","team1_pp_sr","team2_pp_sr","team1_death_ec","team2_death_ec"],"feature_types":["float","float","float","int","float","float","float","float","float","float","float","float","int","int","int","int","int","int","int","float","float","float","float"],"gradient_booster":{"model":{"cats":{"enc":[],"feature_segments":[],"sorted_idx":[]},"gbtree_model_param":{"num_parallel_tree":"1","num_trees":"250"},"iteration_indptr":[0,1,2,3,4,5,6,7,8,9,10,11,12,13,14,15,16,17,18,19,20,21,22,23,24,25,26,27,28,29,30,31,32,33,34,35,36,37,38,39,40,41,42,43,44,45,46,47,48,49,50,51,52,53,54,55,56,57,58,59,60,61,62,63,64,65,66,67,68,69,70,71,72,73,74,75,76,77,78,79,80,81,82,83,84,85,86,87,88,89,90,91,92,93,94,95,96,97,98,99,100,101,102,103,104,105,106,107,108,109,110,111,112,113,114,115,116,117,118,119,120,121,122,123,124,125,126,127,128,129,130,131,132,133,134,135,136,137,138,139,140,141,142,143,144,145,146,147,148,149,150,151,152,153,154,155,156,157,158,159,160,161,162,163,164,165,166,167,168,169,170,171,172,173,174,175,176,177,178,179,180,181,182,183,184,185,186,187,188,189,190,191,192,193,194,195,196,197,198,199,200,201,202,203,204,205,206,207,208,209,210,211,212,213,214,215,216,217,218,219,220,221,222,223,224,225,226,227,228,229,230,231,232,233,234,235,236,237,238,239,240,241,242,243,244,245,246,247,248,249,250],"tree_info":[0,0,0,0,0,0,0,0,0,0,0,0,0,0,0,0,0,0,0,0,0,0,0,0,0,0,0,0,0,0,0,0,0,0,0,0,0,0,0,0,0,0,0,0,0,0,0,0,0,0,0,0,0,0,0,0,0,0,0,0,0,0,0,0,0,0,0,0,0,0,0,0,0,0,0,0,0,0,0,0,0,0,0,0,0,0,0,0,0,0,0,0,0,0,0,0,0,0,0,0,0,0,0,0,0,0,0,0,0,0,0,0,0,0,0,0,0,0,0,0,0,0,0,0,0,0,0,0,0,0,0,0,0,0,0,0,0,0,0,0,0,0,0,0,0,0,0,0,0,0,0,0,0,0,0,0,0,0,0,0,0,0,0,0,0,0,0,0,0,0,0,0,0,0,0,0,0,0,0,0,0,0,0,0,0,0,0,0,0,0,0,0,0,0,0,0,0,0,0,0,0,0,0,0,0,0,0,0,0,0,0,0,0,0,0,0,0,0,0,0,0,0,0,0,0,0,0,0,0,0,0,0,0,0,0,0,0,0,0,0,0,0,0,0,0,0,0,0,0,0],"trees":[{"base_weights":[-1.4837833E-2,-3.5989112E-1,7.8685296E-1,-2.1664979E-2,-8.7269443E-1,-8.09705E-3,9.1242063E-1,-2.4350937E-1,2.9548055E-1,1.93913E-1,-1.0864136E0,3.2378376E-1,1.1926038E0,-4.6964115E-3,3.1197623E-3,5.0768554E-3,-2.893745E-3,-4.189916E-3,5.4598586E-3,-1.2295135E-2,3.8660078E-3,7.901222E-3,-2.7448456E-3,1.361447E-3,1.3759892E-2],"categories":[],"categories_nodes":[],"categories_segments":[],"categories_sizes":[],"default_left":[0,0,0,0,0,0,0,0,0,0,0,0,0,0,0,0,0,0,0,0,0,0,0,0,0],"id":0,"left_children":[1,3,5,7,9,-1,11,13,15,17,19,21,23,-1,-1,-1,-1,-1,-1,-1,-1,-1,-1,-1,-1],"loss_changes":[2.0106216E1,8.789219E0,5.1244497E0,2.2970743E0,4.8056955E0,0E0,3.0362892E0,2.5529194E0,1.818525E0,1.1379545E0,4.0469837E0,2.466891E0,2.464302E0,0E0,0E0,0E0,0E0,0E0,0E0,0E0,0E0,0E0,0E0,0E0,0E0],"parents":[2147483647,0,0,1,1,2,2,3,3,4,4,6,6,7,7,8,8,9,9,10,10,11,11,12,12],"right_children":[2,4,6,8,10,-1,12,14,16,18,20,22,24,-1,-1,-1,-1,-1,-1,-1,-1,-1,-1,-1,-1],"split_conditions":[3.4E1,8.528735E0,7.494585E0,1E0,2E-1,-8.09705E-3,-6.345179E0,1.5245972E3,9.803572E0,1.2E1,1.7153847E2,1.327381E2,1E0,-4.6964115E-3,3.1197623E-3,5.0768554E-3,-2.893745E-3,-4.189916E-3,5.4598586E-3,-1.2295135E-2,3.8660078E-3,7.901222E-3,-2.7448456E-3,1.361447E-3,1.3759892E-2],"split_indices":[13,7,8,17,11,0,6,1,21,13,19,20,15,0,0,0,0,0,0,0,0,0,0,0,0],"split_type":[0,0,0,0,0,0,0,0,0,0,0,0,0,0,0,0,0,0,0,0,0,0,0,0,0],"sum_hessian":[7.066005E1,4.9783833E1,2.087622E1,3.062618E1,1.915765E1,1.1249129E0,1.9751308E1,1.8157284E1,1.2468898E1,3.213371E0,1.5944279E1,7.064697E0,1.2686611E1,1.3013981E1,5.143302E0,9.246063E0,3.2228348E0,1.1030537E0,2.1103172E0,1.4683153E1,1.2611253E0,3.7898781E0,3.2748187E0,2.1341956E0,1.0552415E1],"tree_param":{"num_deleted":"0","num_feature":"23","num_nodes":"25","size_leaf_vector":"1"}},{"base_weights":[2.9642057E-2,-2.9054195E-1,7.4218476E-1,5.518235E-2,-6.450181E-1,-6.7659128E-3,8.6933523E-1,-1.2958384E-1,5.0707E-1,-7.761011E-1,7.885754E-3,7.536838E-2,1.051682E0,1.2378609E-3,-6.271208E-3,7.6012504E-3,-4.1499436E-3,-1.0340458E-2,-3.3551534E-3,6.0412157E-3,-4.7448343E-3,-1.287272E-3,1.1434556E-2],"categories":[],"categories_nodes":[],"categories_segments":[],"categories_sizes":[],"default_left":[0,0,0,0,0,0,0,0,0,0,0,0,0,0,0,0,0,0,0,0,0,0,0],"id":1,"left_children":[1,3,5,7,9,-1,11,13,15,17,-1,19,21,-1,-1,-1,-1,-1,-1,-1,-1,-1,-1],"loss_changes":[1.5871808E1,5.9261975E0,4.4770803E0,2.1743262E0,5.0867023E0,0E0,2.8484058E0,2.4377403E0,2.073114E0,2.1897488E0,0E0,1.697894E0,1.9203339E0,0E0,0E0,0E0,0E0,0E0,0E0,0E0,0E0,0E0,0E0],"parents":[2147483647,0,0,1,1,2,2,3,3,4,4,6,6,7,7,8,8,9,9,11,11,12,12],"right_children":[2,4,6,8,10,-1,12,14,16,18,-1,20,22,-1,-1,-1,-1,-1,-1,-1,-1,-1,-1],"split_conditions":[3.4E1,2E1,7.494585E0,8.634147E0,6.086956E-1,-6.7659128E-3,-1.2819917E1,9.613259E0,9.1357315E1,2.9E1,7.885754E-3,1.4914285E2,1.4564751E3,1.2378609E-3,-6.271208E-3,7.6012504E-3,-4.1499436E-3,-1.0340458E-2,-3.3551534E-3,6.0412157E-3,-4.7448343E-3,-1.287272E-3,1.1434556E-2],"split_indices":[13,13,8,8,10,0,6,21,2,13,0,5,0,0,0,0,0,0,0,0,0,0,0],"split_type":[0,0,0,0,0,0,0,0,0,0,0,0,0,0,0,0,0,0,0,0,0,0,0],"sum_hessian":[6.762385E1,4.7066547E1,2.05573E1,2.4254856E1,2.281169E1,1.3353994E0,1.92219E1,1.7721992E1,6.5328646E0,2.1320816E1,1.4908723E0,3.8540556E0,1.5367846E1,1.2239996E1,5.481996E0,5.2638574E0,1.2690072E0,1.2598146E1,8.722671E0,1.9144077E0,1.9396479E0,1.0795691E0,1.4288276E1],"tree_param":{"num_deleted":"0","num_feature":"23","num_nodes":"23","size_leaf_vector":"1"}},{"base_weights":[-1.33516425E-2,-3.516637E-1,7.2861E-1,-6.1991047E-2,-8.449317E-1,1.0461607E0,1.3140966E-1,-3.0489853E-1,3.0403957E-1,1.9706833E-1,-1.0885476E0,1.1883973E0,-1.3676257E-3,-2.3135445E-1,8.495305E-3,-4.392056E-3,6.4081084E-3,6.453157E-4,7.613853E-3,-4.2357743E-3,5.525968E-3,-1.22601995E-2,1.6451952E-3,4.652535E-3,1.4270918E-2,1.3506255E-3,-8.158432E-3],"categories":[],"categories_nodes":[],"categories_segments":[],"categories_sizes":[],"default_left":[0,0,0,0,0,0,0,0,0,0,0,0,0,0,0,0,0,0,0,0,0,0,0,0,0,0,0],"id":2,"left_children":[1,3,5,7,9,11,13,15,17,19,21,23,-1,25,-1,-1,-1,-1,-1,-1,-1,-1,-1,-1,-1,-1,-1],"loss_changes":[1.7799973E1,6.9030046E0,4.075139E0,2.9153879E0,4.7661695E0,2.578435E0,2.5033393E0,2.7687125E0,1.3929058E0,1.1706368E0,2.7315807E0,1.5662766E0,0E0,1.5384779E0,0E0,0E0,0E0,0E0,0E0,0E0,0E0,0E0,0E0,0E0,0E0,0E0,0E0],"parents":[2147483647,0,0,1,1,2,2,3,3,4,4,5,5,6,6,7,7,8,8,9,9,10,10,11,11,13,13],"right_children":[2,4,6,8,10,12,14,16,18,20,22,24,-1,26,-1,-1,-1,-1,-1,-1,-1,-1,-1,-1,-1,-1,-1],"split_conditions":[3.4E1,8.528735E0,1.5347871E3,1E0,2E-1,1.5780142E2,5.135135E-1,6.693122E-1,1.7857144E-2,1.2E1,1.2741832E0,1.2072072E2,-1.3676257E-3,3.6E1,8.495305E-3,-4.392056E-3,6.4081084E-3,6.453157E-4,7.613853E-3,-4.2357743E-3,5.525968E-3,-1.22601995E-2,1.6451952E-3,4.652535E-3,1.4270918E-2,1.3506255E-3,-8.158432E-3],"split_indices":[13,7,1,17,11,5,11,9,9,13,9,20,0,12,0,0,0,0,0,0,0,0,0,0,0,0,0],"split_type":[0,0,0,0,0,0,0,0,0,0,0,0,0,0,0,0,0,0,0,0,0,0,0,0,0,0,0],"sum_hessian":[6.889134E1,4.7677757E1,2.1213583E1,3.074712E1,1.6930637E1,1.3358604E1,7.854978E0,1.858238E1,1.2164741E1,3.2444527E0,1.3686185E1,1.1920623E1,1.4379816E0,5.6690493E0,2.185929E0,1.6740519E1,1.8418618E0,8.732635E0,3.432105E0,1.1119391E0,2.1325135E0,1.2352584E1,1.3336017E0,3.6901581E0,8.230464E0,3.9571974E0,1.7118518E0],"tree_param":{"num_deleted":"0","num_feature":"23","num_nodes":"27","size_leaf_vector":"1"}},{"base_weights":[-8.968747E-3,-3.2593223E-1,6.450776E-1,-6.361015E-2,-8.2830995E-1,1.0096066E0,-3.8107604E-2,-6.736213E-1,1.0469296E-1,3.155954E-3,-1.0512192E0,1.1339446E0,-1.3755538E-3,-3.716975E-1,9.992424E-3,2.6929788E-3,-8.769051E-3,-1.6205766E-3,4.8695393E-3,-1.0066013E-2,7.5005237E-3,-1.18433675E-2,2.272534E-3,2.53416E-4,1.2949969E-2,-6.1413688E-3,5.4056523E-3],"categories":[],"categories_nodes":[],"categories_segments":[],"categories_sizes":[],"default_left":[0,0,0,0,0,0,0,0,0,0,0,0,0,0,0,0,0,0,0,0,0,0,0,0,0,0,0],"id":3,"left_children":[1,3,5,7,9,11,13,15,17,19,21,23,-1,25,-1,-1,-1,-1,-1,-1,-1,-1,-1,-1,-1,-1,-1],"loss_changes":[1.469431E1,6.2367306E0,5.8018103E0,3.4006836E0,3.0222235E0,2.313592E0,3.491198E0,1.6063976E0,2.7594557E0,4.1040215E0,2.4556684E0,2.4231644E0,0E0,2.0019312E0,0E0,0E0,0E0,0E0,0E0,0E0,0E0,0E0,0E0,0E0,0E0,0E0,0E0],"parents":[2147483647,0,0,1,1,2,2,3,3,4,4,5,5,6,6,7,7,8,8,9,9,10,10,11,11,13,13],"right_children":[2,4,6,8,10,12,14,16,18,20,22,24,-1,26,-1,-1,-1,-1,-1,-1,-1,-1,-1,-1,-1,-1,-1],"split_conditions":[3.3E1,1.04E1,1.5347871E3,9.275862E0,1.891892E-1,1.5780142E2,8.503864E0,7.6871037E0,1E0,1.2E1,1.6443298E2,1E0,-1.3755538E-3,5.833333E-1,9.992424E-3,2.6929788E-3,-8.769051E-3,-1.6205766E-3,4.8695393E-3,-1.0066013E-2,7.5005237E-3,-1.18433675E-2,2.272534E-3,2.53416E-4,1.2949969E-2,-6.1413688E-3,5.4056523E-3],"split_indices":[13,21,1,21,11,5,8,8,17,13,19,15,0,11,0,0,0,0,0,0,0,0,0,0,0,0,0],"split_type":[0,0,0,0,0,0,0,0,0,0,0,0,0,0,0,0,0,0,0,0,0,0,0,0,0,0,0],"sum_hessian":[6.886707E1,4.6724937E1,2.2142138E1,3.1436592E1,1.5288344E1,1.4126716E1,8.015423E0,6.148619E0,2.5287971E1,3.4405842E0,1.184776E1,1.275568E1,1.3710349E0,6.55058E0,1.4648427E0,1.0328892E0,5.11573E0,1.5233639E1,1.0054334E1,1.3150316E0,2.1255527E0,1.0797166E1,1.0505946E0,1.7648295E0,1.099085E1,5.433415E0,1.117165E0],"tree_param":{"num_deleted":"0","num_feature":"23","num_nodes":"27","size_leaf_vector":"1"}},{"base_weights":[8.354332E-2,-2.8766838E-1,8.276323E-1,1.3861268E-2,-8.390389E-1,-6.5211123E-3,9.5512575E-1,7.554118E-3,-9.643357E-2,1.7352676E-1,-1.070139E0,4.495373E-1,1.3522708E-2,-8.560731E-3,5.999428E-4,-4.0940563E-3,5.2185417E-3,-3.5830115E-3,-1.278406E-2,6.5908274E-3,-4.2809853E-3],"categories":[],"categories_nodes":[],"categories_segments":[],"categories_sizes":[],"default_left":[0,0,0,0,0,0,0,0,0,0,0,0,0,0,0,0,0,0,0,0,0],"id":4,"left_children":[1,3,5,7,9,-1,11,-1,13,15,17,19,-1,-1,-1,-1,-1,-1,-1,-1,-1],"loss_changes":[1.9074183E1,7.6989937E0,4.9535303E0,2.598117E0,4.014742E0,0E0,3.7171707E0,0E0,3.3505788E0,1.0057739E0,1.5377254E0,2.3003614E0,0E0,0E0,0E0,0E0,0E0,0E0,0E0,0E0,0E0],"parents":[2147483647,0,0,1,1,2,2,3,3,4,4,6,6,8,8,9,9,10,10,11,11],"right_children":[2,4,6,8,10,-1,12,-1,14,16,18,20,-1,-1,-1,-1,-1,-1,-1,-1,-1],"split_conditions":[3.3E1,8.528735E0,7.587242E0,7.587242E0,2E-1,-6.5211123E-3,-1.9628248E1,7.554118E-3,9.145162E0,1.2E1,8.370787E0,4.1E1,1.3522708E-2,-8.560731E-3,5.999428E-4,-4.0940563E-3,5.2185417E-3,-3.5830115E-3,-1.278406E-2,6.5908274E-3,-4.2809853E-3],"split_indices":[13,7,8,8,11,0,2,0,21,13,8,12,0,0,0,0,0,0,0,0,0],"split_type":[0,0,0,0,0,0,0,0,0,0,0,0,0,0,0,0,0,0,0,0,0],"sum_hessian":[6.719373E1,4.5238506E1,2.1955229E1,2.9875347E1,1.536316E1,1.4151803E0,2.0540047E1,3.1108692E0,2.6764479E1,2.901102E0,1.2462058E1,9.974218E0,1.0565829E1,3.8065588E0,2.295792E1,1.0195385E0,1.8815637E0,3.4365683E0,9.02549E0,8.252795E0,1.7214231E0],"tree_param":{"num_deleted":"0","num_feature":"23","num_nodes":"21","size_leaf_vector":"1"}},{"base_weights":[1.2319974E-2,-2.8141004E-1,7.239121E-1,8.360594E-3,-7.521638E-1,1.0687358E0,6.8549976E-2,-8.912118E-2,7.3777568E-3,4.549876E-3,-9.9869937E-1,1.1802299E0,-1.6825037E-3,3.227081E-1,-6.188165E-3,3.2659608E-4,-6.928843E-3,-1.1016118E-2,2.502993E-3,9.154027E-4,1.3513337E-2,8.747401E-3,-7.80276E-4],"categories":[],"categories_nodes":[],"categories_segments":[],"categories_sizes":[],"default_left":[0,0,0,0,0,0,0,0,0,0,0,0,0,0,0,0,0,0,0,0,0,0,0],"id":5,"left_children":[1,3,5,7,9,11,13,15,-1,-1,17,19,-1,21,-1,-1,-1,-1,-1,-1,-1,-1,-1],"loss_changes":[1.5162666E1,7.014796E0,4.7154436E0,2.397364E0,6.2835264E0,2.1040707E0,1.662658E0,2.215033E0,0E0,0E0,2.406622E0,2.2604294E0,0E0,1.566094E0,0E0,0E0,0E0,0E0,0E0,0E0,0E0,0E0,0E0],"parents":[2147483647,0,0,1,1,2,2,3,3,4,4,5,5,6,6,7,7,10,10,11,11,13,13],"right_children":[2,4,6,8,10,12,14,16,-1,-1,18,20,-1,22,-1,-1,-1,-1,-1,-1,-1,-1,-1],"split_conditions":[3.5E1,8.528735E0,1.5347871E3,1.1575221E1,2E-1,1.5868544E2,4.1E1,4.5E1,7.3777568E-3,4.549876E-3,1E1,1.2682927E2,-1.6825037E-3,2E0,-6.188165E-3,3.2659608E-4,-6.928843E-3,-1.1016118E-2,2.502993E-3,9.154027E-4,1.3513337E-2,8.747401E-3,-7.80276E-4],"split_indices":[13,7,1,22,11,5,12,12,0,0,7,5,0,16,0,0,0,0,0,0,0,0,0],"split_type":[0,0,0,0,0,0,0,0,0,0,0,0,0,0,0,0,0,0,0,0,0,0,0],"sum_hessian":[7.056845E1,5.0378017E1,2.0190432E1,3.1791267E1,1.858675E1,1.281629E1,7.374142E0,2.881777E1,2.9734967E0,3.0087926E0,1.5577957E1,1.1798712E1,1.0175781E0,5.770849E0,1.603293E0,2.4767916E1,4.0498543E0,1.4501127E1,1.0768304E0,1.8109707E0,9.987741E0,1.9297264E0,3.8411229E0],"tree_param":{"num_deleted":"0","num_feature":"23","num_nodes":"23","size_leaf_vector":"1"}},{"base_weights":[1.7033031E-2,-3.0435404E-1,7.215429E-1,-1.1033859E-2,-8.201848E-1,-7.531924E-3,8.3468E-1,-3.979292E-1,1.7485033E-1,1.21855795E-1,-1.0238658E-2,2.8757998E-1,1.0606434E0,-5.637487E-3,4.4673826E-3,5.9064006E-4,7.6966034E-3,-3.6153633E-3,6.508645E-3,5.7095117E-3,-6.3476632E-3,2.2883823E-3,1.2034059E-2],"categories":[],"categories_nodes":[],"categories_segments":[],"categories_sizes":[],"default_left":[0,0,0,0,0,0,0,0,0,0,0,0,0,0,0,0,0,0,0,0,0,0,0],"id":6,"left_children":[1,3,5,7,9,-1,11,13,15,17,-1,19,21,-1,-1,-1,-1,-1,-1,-1,-1,-1,-1],"loss_changes":[1.5817516E1,7.255233E0,4.27894E0,2.3436642E0,3.4616032E0,0E0,2.2655554E0,1.7319044E0,1.4733872E0,1.2544185E0,0E0,2.3095555E0,1.4279213E0,0E0,0E0,0E0,0E0,0E0,0E0,0E0,0E0,0E0,0E0],"parents":[2147483647,0,0,1,1,2,2,3,3,4,4,6,6,7,7,8,8,9,9,11,11,12,12],"right_children":[2,4,6,8,10,-1,12,14,16,18,-1,20,22,-1,-1,-1,-1,-1,-1,-1,-1,-1,-1],"split_conditions":[3.4E1,8.528735E0,7.494585E0,-5E-1,2E-1,-7.531924E-3,-6.345179E0,1.1851239E1,8.543828E0,1.764706E-1,-1.0238658E-2,1.5649606E2,1E0,-5.637487E-3,4.4673826E-3,5.9064006E-4,7.6966034E-3,-3.6153633E-3,6.508645E-3,5.7095117E-3,-6.3476632E-3,2.2883823E-3,1.2034059E-2],"split_indices":[13,7,8,9,11,0,6,22,8,11,0,5,15,0,0,0,0,0,0,0,0,0,0],"split_type":[0,0,0,0,0,0,0,0,0,0,0,0,0,0,0,0,0,0,0,0,0,0,0],"sum_hessian":[6.7889175E1,4.70113E1,2.0877874E1,3.0620665E1,1.6390635E1,1.084475E0,1.97934E1,9.567123E0,2.1053541E1,2.9852676E0,1.3405368E1,6.44983E0,1.3343571E1,8.275175E0,1.2919483E0,1.8543201E1,2.5103393E0,1.7253097E0,1.2599579E0,5.2254133E0,1.2244167E0,2.3359702E0,1.10076E1],"tree_param":{"num_deleted":"0","num_feature":"23","num_nodes":"23","size_leaf_vector":"1"}},{"base_weights":[1.7180298E-2,-3.1428674E-1,7.351503E-1,-5.0404355E-2,-7.6236486E-1,1.0657586E0,4.5609146E-2,-1.5595306E-1,7.25489E-3,2.9331315E-1,-9.8563135E-1,1.1940721E0,-1.1923601E-3,-3.688854E-1,1.0655349E-2,7.7459356E-3,-2.4406107E-3,-4.62487E-3,7.188538E-3,-1.1398453E-2,4.039334E-3,-9.117055E-4,1.3331254E-2,2.0767578E-3,-7.7023967E-3],"categories":[],"categories_nodes":[],"categories_segments":[],"categories_sizes":[],"default_left":[0,0,0,0,0,0,0,0,0,0,0,0,0,0,0,0,0,0,0,0,0,0,0,0,0],"id":7,"left_children":[1,3,5,7,9,11,13,15,-1,17,19,21,-1,23,-1,-1,-1,-1,-1,-1,-1,-1,-1,-1,-1],"loss_changes":[1.7115124E1,5.7835155E0,5.128107E0,2.7386296E0,4.573846E0,2.469389E0,3.9458418E0,2.5702827E0,0E0,1.6010042E0,3.7250977E0,2.6056614E0,0E0,1.7146152E0,0E0,0E0,0E0,0E0,0E0,0E0,0E0,0E0,0E0,0E0,0E0],"parents":[2147483647,0,0,1,1,2,2,3,3,4,4,5,5,6,6,7,7,9,9,10,10,11,11,13,13],"right_children":[2,4,6,8,10,12,14,16,-1,18,20,22,-1,24,-1,-1,-1,-1,-1,-1,-1,-1,-1,-1,-1],"split_conditions":[3.4E1,8.517858E0,1.5347871E3,1.1575221E1,2E-1,1.5780142E2,8.503864E0,7.293839E0,7.25489E-3,2.6E1,1.7153847E2,1.4564751E3,-1.1923601E-3,2.5E1,1.0655349E-2,7.7459356E-3,-2.4406107E-3,-4.62487E-3,7.188538E-3,-1.1398453E-2,4.039334E-3,-9.117055E-4,1.3331254E-2,2.0767578E-3,-7.7023967E-3],"split_indices":[13,7,1,22,11,5,8,8,0,12,19,0,0,12,0,0,0,0,0,0,0,0,0,0,0],"split_type":[0,0,0,0,0,0,0,0,0,0,0,0,0,0,0,0,0,0,0,0,0,0,0,0,0],"sum_hessian":[6.994645E1,4.8238373E1,2.1708078E1,3.1059366E1,1.7179007E1,1.43041725E1,7.4039044E0,2.8043472E1,3.0158937E0,2.944186E0,1.4234821E1,1.2899708E1,1.4044653E0,5.7183194E0,1.6855853E0,1.751692E0,2.629178E1,1.0292751E0,1.9149108E0,1.2974608E1,1.2602125E0,1.2930117E0,1.1606696E1,2.5449545E0,3.1733649E0],"tree_param":{"num_deleted":"0","num_feature":"23","num_nodes":"25","size_leaf_vector":"1"}},{"base_weights":[1.3126109E-2,-3.1745633E-1,6.891246E-1,-3.4182876E-2,-8.458137E-1,1.0308843E0,1.3064633E-2,-4.4345018E-1,1.7444338E-1,-2.3058948E-1,-1.1391364E0,1.2641518E0,1.030934E-1,-5.622521E-1,5.081274E-1,4.377499E-3,-6.2850313E-3,5.9206685E-4,7.1005845E-3,-6.3830367E-3,5.6630257E-3,-1.3501561E-3,-1.3320647E-2,9.7580085E-4,1.4390695E-2,-8.20426E-3,8.030246E-3,-1.755361E-4,-1.0590299E-2,-3.3371642E-3,8.351664E-3],"categories":[],"categories_nodes":[],"categories_segments":[],"categories_sizes":[],"default_left":[0,0,0,0,0,0,0,0,0,0,0,0,0,0,0,0,0,0,0,0,0,0,0,0,0,0,0,0,0,0,0],"id":8,"left_children":[1,3,5,7,9,11,13,15,17,19,21,23,25,27,29,-1,-1,-1,-1,-1,-1,-1,-1,-1,-1,-1,-1,-1,-1,-1,-1],"loss_changes":[1.593343E1,7.1417766E0,5.3954124E0,2.8293455E0,2.7472725E0,3.2321682E0,2.8129864E0,2.0957477E0,1.3199294E0,2.518415E0,1.9589844E0,2.3748245E0,3.3803275E0,1.2203921E0,1.7363985E0,0E0,0E0,0E0,0E0,0E0,0E0,0E0,0E0,0E0,0E0,0E0,0E0,0E0,0E0,0E0,0E0],"parents":[2147483647,0,0,1,1,2,2,3,3,4,4,5,5,6,6,7,7,8,8,9,9,10,10,11,11,12,12,13,13,14,14],"right_children":[2,4,6,8,10,12,14,16,18,20,22,24,26,28,30,-1,-1,-1,-1,-1,-1,-1,-1,-1,-1,-1,-1,-1,-1,-1,-1],"split_conditions":[3.3E1,8.528735E0,1.5347871E3,-4.836116E-1,2E1,1.4990176E2,1.2366412E2,1.4691682E3,7.3115575E-1,2E0,1.4553284E3,1.2682927E2,2E0,5.007889E-1,1.15789474E2,4.377499E-3,-6.2850313E-3,5.9206685E-4,7.1005845E-3,-6.3830367E-3,5.6630257E-3,-1.3501561E-3,-1.3320647E-2,9.7580085E-4,1.4390695E-2,-8.20426E-3,8.030246E-3,-1.755361E-4,-1.0590299E-2,-3.3371642E-3,8.351664E-3],"split_indices":[13,7,1,9,13,5,19,0,9,15,0,5,16,9,20,0,0,0,0,0,0,0,0,0,0,0,0,0,0,0,0],"split_type":[0,0,0,0,0,0,0,0,0,0,0,0,0,0,0,0,0,0,0,0,0,0,0,0,0,0,0,0,0,0,0],"sum_hessian":[6.9320114E1,4.6910122E1,2.2409994E1,3.123076E1,1.567936E1,1.4536636E1,7.873357E0,1.0164748E1,2.1066011E1,5.638701E0,1.004066E1,1.1326388E1,3.2102487E0,3.5787458E0,4.294611E0,1.5271417E0,8.637607E0,1.8250078E1,2.8159347E0,3.861863E0,1.776838E0,1.8922132E0,8.148446E0,1.6799864E0,9.646401E0,1.3098388E0,1.90041E0,2.2008884E0,1.3778574E0,1.1958666E0,3.0987442E0],"tree_param":{"num_deleted":"0","num_feature":"23","num_nodes":"31","size_leaf_vector":"1"}},{"base_weights":[-6.0377214E-3,-3.1152278E-1,6.166624E-1,-1.0788082E-2,-6.8457854E-1,9.75679E-1,-3.8480047E-2,-1.03411116E-1,9.503043E-3,-7.8375673E-1,4.3798843E-3,-3.9782476E-2,1.1533788E0,-4.2140785E-1,4.95664E-3,1.3112003E-4,-8.3529735E-3,7.78593E-4,-8.555554E-3,6.5768305E-3,-7.6424116E-3,-1.2812051E-3,1.2977866E-2,1.7337073E-3,-8.725915E-3],"categories":[],"categories_nodes":[],"categories_segments":[],"categories_sizes":[],"default_left":[0,0,0,0,0,0,0,0,0,0,0,0,0,0,0,0,0,0,0,0,0,0,0,0,0],"id":9,"left_children":[1,3,5,7,9,11,13,15,-1,17,-1,19,21,23,-1,-1,-1,-1,-1,-1,-1,-1,-1,-1,-1],"loss_changes":[1.3085048E1,5.1684976E0,5.3632174E0,2.462558E0,2.6340208E0,2.6921244E0,2.0451415E0,2.1537838E0,0E0,1.2583151E0,0E0,2.0946443E0,2.4821262E0,1.6995372E0,0E0,0E0,0E0,0E0,0E0,0E0,0E0,0E0,0E0,0E0,0E0],"parents":[2147483647,0,0,1,1,2,2,3,3,4,4,5,5,6,6,7,7,9,9,11,11,12,12,13,13],"right_children":[2,4,6,8,10,12,14,16,-1,18,-1,20,22,24,-1,-1,-1,-1,-1,-1,-1,-1,-1,-1,-1],"split_conditions":[3.3E1,2E1,1.5347871E3,1.2741832E0,6.086956E-1,1.4659915E3,1.5666239E3,1.4474475E2,9.503043E-3,1.7142858E-1,4.3798843E-3,2.9032257E-1,1.2682927E2,1.2420091E2,4.95664E-3,1.3112003E-4,-8.3529735E-3,7.78593E-4,-8.555554E-3,6.5768305E-3,-7.6424116E-3,-1.2812051E-3,1.2977866E-2,1.7337073E-3,-8.725915E-3],"split_indices":[13,13,1,9,10,0,1,5,0,11,0,10,5,20,0,0,0,0,0,0,0,0,0,0,0],"split_type":[0,0,0,0,0,0,0,0,0,0,0,0,0,0,0,0,0,0,0,0,0,0,0,0,0],"sum_hessian":[6.677713E1,4.513464E1,2.164249E1,2.5559254E1,1.9575386E1,1.3664895E1,7.9775953E0,2.412652E1,1.4327343E0,1.8263622E1,1.311764E0,2.150729E0,1.1514166E1,4.769442E0,3.208153E0,2.1660112E1,2.4664075E0,1.398353E0,1.686527E1,1.1427401E0,1.0079888E0,1.177513E0,1.0336654E1,2.3229399E0,2.4465022E0],"tree_param":{"num_deleted":"0","num_feature":"23","num_nodes":"25","size_leaf_vector":"1"}},{"base_weights":[-3.122845E-2,-3.4943086E-1,7.145113E-1,-3.4647748E-2,-8.490383E-1,-7.8042694E-3,8.436599E-1,-4.0671867E-1,1.476126E-1,-2.2496589E-1,-1.1254095E-2,9.431847E-1,1.2872286E-1,5.961454E-4,-7.5480584E-3,2.5037103E-3,-4.7027017E-3,-6.3460795E-3,5.6097237E-3,-2.130754E-3,1.0374886E-2,-6.741311E-3,8.508116E-3],"categories":[],"categories_nodes":[],"categories_segments":[],"categories_sizes":[],"default_left":[0,0,0,0,0,0,0,0,0,0,0,0,0,0,0,0,0,0,0,0,0,0,0],"id":10,"left_children":[1,3,5,7,9,-1,11,13,15,17,-1,19,21,-1,-1,-1,-1,-1,-1,-1,-1,-1,-1],"loss_changes":[1.7048254E1,7.8797355E0,4.809535E0,2.2229383E0,3.0921946E0,0E0,1.3209877E0,1.7904832E0,1.5235752E0,2.6750515E0,0E0,2.1441202E0,2.6809769E0,0E0,0E0,0E0,0E0,0E0,0E0,0E0,0E0,0E0,0E0],"parents":[2147483647,0,0,1,1,2,2,3,3,4,4,6,6,7,7,8,8,9,9,11,11,12,12],"right_children":[2,4,6,8,10,-1,12,14,16,18,-1,20,22,-1,-1,-1,-1,-1,-1,-1,-1,-1,-1],"split_conditions":[3.4E1,8.528735E0,7.494585E0,-4.836116E-1,2E1,-7.8042694E-3,1.5465117E2,-9.4984406E-1,4.5E1,2E0,-1.1254095E-2,7.5823007E0,1E0,5.961454E-4,-7.5480584E-3,2.5037103E-3,-4.7027017E-3,-6.3460795E-3,5.6097237E-3,-2.130754E-3,1.0374886E-2,-6.741311E-3,8.508116E-3],"split_indices":[13,7,8,9,13,0,5,9,12,15,0,7,17,0,0,0,0,0,0,0,0,0,0],"split_type":[0,0,0,0,0,0,0,0,0,0,0,0,0,0,0,0,0,0,0,0,0,0,0],"sum_hessian":[6.979162E1,4.9290924E1,2.0500694E1,3.0894722E1,1.8396204E1,1.2292184E0,1.9271477E1,9.7530575E0,2.1141665E1,6.2030735E0,1.21931305E1,1.6636314E1,2.6351607E0,4.5227094E0,5.2303476E0,1.863699E1,2.5046756E0,4.204287E0,1.9987863E0,1.1595552E0,1.547676E1,1.2792464E0,1.3559142E0],"tree_param":{"num_deleted":"0","num_feature":"23","num_nodes":"23","size_leaf_vector":"1"}},{"base_weights":[-2.7261537E-2,-3.3531177E-1,6.1845255E-1,2.9004784E-3,-8.0942434E-1,-7.031495E-3,7.4034244E-1,1.8838474E-1,-5.297877E-1,-9.2374146E-1,4.146656E-3,3.2803327E-1,9.329475E-1,4.0490663E-4,1.0272053E-2,-7.504617E-3,3.8409154E-3,-9.952167E-3,-9.662124E-5,7.0703696E-3,-5.9695486E-3,1.10924E-2,6.4039545E-4],"categories":[],"categories_nodes":[],"categories_segments":[],"categories_sizes":[],"default_left":[0,0,0,0,0,0,0,0,0,0,0,0,0,0,0,0,0,0,0,0,0,0,0],"id":11,"left_children":[1,3,5,7,9,-1,11,13,15,17,-1,19,21,-1,-1,-1,-1,-1,-1,-1,-1,-1,-1],"loss_changes":[1.3987219E1,7.626926E0,4.181592E0,2.9403162E0,3.1538582E0,0E0,1.3850288E0,2.6952581E0,1.8385355E0,1.1937971E0,0E0,3.3397222E0,2.0692425E0,0E0,0E0,0E0,0E0,0E0,0E0,0E0,0E0,0E0,0E0],"parents":[2147483647,0,0,1,1,2,2,3,3,4,4,6,6,7,7,8,8,9,9,11,11,12,12],"right_children":[2,4,6,8,10,-1,12,14,16,18,-1,20,22,-1,-1,-1,-1,-1,-1,-1,-1,-1,-1],"split_conditions":[3.4E1,1.2182741E2,7.494585E0,4E-1,3E0,-7.031495E-3,8.46493E0,1.384844E2,1.09007635E1,1.595238E2,4.146656E-3,8.213974E0,1.5780142E2,4.0490663E-4,1.0272053E-2,-7.504617E-3,3.8409154E-3,-9.952167E-3,-9.662124E-5,7.0703696E-3,-5.9695486E-3,1.10924E-2,6.4039545E-4],"split_indices":[13,20,8,11,15,0,8,5,21,4,0,8,5,0,0,0,0,0,0,0,0,0,0],"split_type":[0,0,0,0,0,0,0,0,0,0,0,0,0,0,0,0,0,0,0,0,0,0,0],"sum_hessian":[6.8275955E1,4.6549393E1,2.1726564E1,2.7748585E1,1.8800806E1,1.431937E0,2.0294628E1,2.1061302E1,6.687283E0,1.7419384E1,1.3814219E0,7.3225036E0,1.2972125E1,1.8795671E1,2.2656305E0,5.530624E0,1.1566592E0,1.6073753E1,1.3456304E0,5.3613677E0,1.9611356E0,1.0554196E1,2.417929E0],"tree_param":{"num_deleted":"0","num_feature":"23","num_nodes":"23","size_leaf_vector":"1"}},{"base_weights":[6.009046E-3,-2.9457602E-1,6.1232495E-1,5.8522817E-2,-7.049281E-1,-8.715745E-3,7.4600345E-1,-1.20934695E-1,4.1958532E-1,-9.835955E-1,1.8497312E-2,1.5084239E-2,8.585236E-1,-3.9210645E-3,1.862614E-3,7.990277E-3,-4.064452E-3,-1.1003964E-2,-4.7043702E-4,8.187438E-3,-4.4382936E-3,-6.8599503E-3,4.909003E-3,3.9494005E-3,1.129418E-2],"categories":[],"categories_nodes":[],"categories_segments":[],"categories_sizes":[],"default_left":[0,0,0,0,0,0,0,0,0,0,0,0,0,0,0,0,0,0,0,0,0,0,0,0,0],"id":12,"left_children":[1,3,5,7,9,-1,11,13,15,17,19,21,23,-1,-1,-1,-1,-1,-1,-1,-1,-1,-1,-1,-1],"loss_changes":[1.3173621E1,7.0453506E0,5.401952E0,1.7940927E0,4.540717E0,0E0,1.8386497E0,1.6348699E0,3.1947231E0,1.7218485E0,3.0346138E0,1.6782194E0,2.0018435E0,0E0,0E0,0E0,0E0,0E0,0E0,0E0,0E0,0E0,0E0,0E0,0E0],"parents":[2147483647,0,0,1,1,2,2,3,3,4,4,6,6,7,7,8,8,9,9,10,10,11,11,12,12],"right_children":[2,4,6,8,10,-1,12,14,16,18,20,22,24,-1,-1,-1,-1,-1,-1,-1,-1,-1,-1,-1,-1],"split_conditions":[3.3E1,2E1,7.494585E0,8.584459E0,8E0,-8.715745E-3,1E0,1E0,6.9584694E1,5.3125E-1,8.370787E0,3.8E1,-6.345179E0,-3.9210645E-3,1.862614E-3,7.990277E-3,-4.064452E-3,-1.1003964E-2,-4.7043702E-4,8.187438E-3,-4.4382936E-3,-6.8599503E-3,4.909003E-3,3.9494005E-3,1.129418E-2],"split_indices":[13,13,8,8,16,0,15,17,2,10,8,13,6,0,0,0,0,0,0,0,0,0,0,0,0],"split_type":[0,0,0,0,0,0,0,0,0,0,0,0,0,0,0,0,0,0,0,0,0,0,0,0,0],"sum_hessian":[7.029372E1,4.7339172E1,2.2954548E1,2.5905472E1,2.1433699E1,1.4408165E0,2.1513733E1,1.7748877E1,8.156596E0,1.5213674E1,6.220025E0,3.021359E0,1.8492373E1,9.280383E0,8.4684925E0,5.6115737E0,2.545023E0,1.33711605E1,1.8425127E0,1.995343E0,4.2246823E0,1.042941E0,1.9784181E0,7.7270045E0,1.0765368E1],"tree_param":{"num_deleted":"0","num_feature":"23","num_nodes":"25","size_leaf_vector":"1"}},{"base_weights":[-8.9379644E-4,-2.0041981E-1,2.6845518E-1,-8.9262456E-2,-9.631313E-3,-1.1151004E-2,5.462813E-1,-1.87827E-1,7.0159924E-1,-3.1458667E-1,3.010404E-1,8.078275E-1,9.470991E-3,4.3066884E-3,-3.262353E-3,1.0579141E-2,-1.990469E-3,4.0531764E-3,-5.870213E-3,4.990042E-3,-5.7448563E-3,1.1920977E-2,1.4573098E-3,-8.035444E-3,5.4149968E-3],"categories":[],"categories_nodes":[],"categories_segments":[],"categories_sizes":[],"default_left":[0,0,0,0,0,0,0,0,0,0,0,0,0,0,0,0,0,0,0,0,0,0,0,0,0],"id":13,"left_children":[1,3,5,7,-1,9,11,13,15,17,19,21,23,-1,-1,-1,-1,-1,-1,-1,-1,-1,-1,-1,-1],"loss_changes":[3.8706796E0,3.4215648E0,2.3870664E0,3.0324376E0,0E0,1.6346544E0,2.1536908E0,3.0404925E0,1.6016927E0,1.9506484E0,1.7639859E0,2.4567742E0,3.0542197E0,0E0,0E0,0E0,0E0,0E0,0E0,0E0,0E0,0E0,0E0,0E0,0E0],"parents":[2147483647,0,0,1,1,2,2,3,3,5,5,6,6,7,7,8,8,9,9,10,10,11,11,12,12],"right_children":[2,4,6,8,-1,10,12,14,16,18,20,22,24,-1,-1,-1,-1,-1,-1,-1,-1,-1,-1,-1,-1],"split_conditions":[2E0,1.4753363E2,1.3116438E2,1.1967391E1,-9.631313E-3,1E1,3.6E1,2.3529412E-1,1.5195941E3,1.891892E-1,1.4673367E2,1.3632288E2,1.2317881E2,4.3066884E-3,-3.262353E-3,1.0579141E-2,-1.990469E-3,4.0531764E-3,-5.870213E-3,4.990042E-3,-5.7448563E-3,1.1920977E-2,1.4573098E-3,-8.035444E-3,5.4149968E-3],"split_indices":[16,20,4,22,0,16,12,11,0,11,5,19,19,0,0,0,0,0,0,0,0,0,0,0,0],"split_type":[0,0,0,0,0,0,0,0,0,0,0,0,0,0,0,0,0,0,0,0,0,0,0,0,0],"sum_hessian":[7.002204E1,4.037173E1,2.9650312E1,3.6211334E1,4.1603966E0,1.5256212E1,1.4394099E1,3.2876465E1,3.3348682E0,7.7327065E0,7.523506E0,9.33904E0,5.055059E0,5.625699E0,2.7250767E1,2.2644045E0,1.0704637E0,1.989012E0,5.743695E0,6.486831E0,1.0366749E0,5.402833E0,3.9362073E0,1.7976516E0,3.2574074E0],"tree_param":{"num_deleted":"0","num_feature":"23","num_nodes":"25","size_leaf_vector":"1"}},{"base_weights":[4.1789684E-2,-1.2002291E-2,1.2834445E-2,4.8639737E-2,-8.276175E-1,1.7288634E-1,-2.6564464E-1,2.4132218E-4,-1.2770301E-2,-4.786271E-3,2.4454482E-3,6.733301E-3,-4.5266813E-3],"categories":[],"categories_nodes":[],"categories_segments":[],"categories_sizes":[],"default_left":[0,0,0,0,0,0,0,0,0,0,0,0,0],"id":14,"left_children":[1,3,-1,5,7,9,11,-1,-1,-1,-1,-1,-1],"loss_changes":[4.6450086E0,3.3752446E0,0E0,2.533543E0,1.838284E0,2.2768478E0,3.5436718E0,0E0,0E0,0E0,0E0,0E0,0E0],"parents":[2147483647,0,0,1,1,3,3,4,4,5,5,6,6],"right_children":[2,4,-1,6,8,10,12,-1,-1,-1,-1,-1,-1],"split_conditions":[1.7153847E2,1.5935484E2,1.2834445E-2,3.6E1,-5.251232E-1,-9.321252E1,2E-1,2.4132218E-4,-1.2770301E-2,-4.786271E-3,2.4454482E-3,6.733301E-3,-4.5266813E-3],"split_indices":[19,5,0,12,9,2,11,0,0,0,0,0,0],"split_type":[0,0,0,0,0,0,0,0,0,0,0,0,0],"sum_hessian":[6.831473E1,6.6427246E1,1.8874815E0,6.2705383E1,3.7218604E0,4.526184E1,1.744354E1,1.6123515E0,2.1095088E0,3.9222019E0,4.133964E1,2.4654083E0,1.4978133E1],"tree_param":{"num_deleted":"0","num_feature":"23","num_nodes":"13","size_leaf_vector":"1"}},{"base_weights":[-6.693932E-2,-3.9774573E-1,5.433196E-1,-9.732821E-2,-9.221062E-1,8.6971796E-1,-8.499683E-2,-2.1664466E-1,7.124164E-3,-1.0402888E0,1.3007061E-3,1.0011132E0,-1.3308631E-3,-3.770645E-1,9.269959E-3,-3.1768323E-3,5.6362282E-3,2.584889E-4,-1.1801137E-2,4.9538177E-4,1.1724188E-2,-6.191822E-3,5.3897486E-3],"categories":[],"categories_nodes":[],"categories_segments":[],"categories_sizes":[],"default_left":[0,0,0,0,0,0,0,0,0,0,0,0,0,0,0,0,0,0,0,0,0,0,0],"id":15,"left_children":[1,3,5,7,9,11,13,15,-1,17,-1,19,-1,21,-1,-1,-1,-1,-1,-1,-1,-1,-1],"loss_changes":[1.4268314E1,7.1117997E0,5.1786785E0,3.0704541E0,2.1912613E0,2.3034496E0,3.1340587E0,2.3134198E0,0E0,2.2629051E0,0E0,2.3348722E0,0E0,2.112857E0,0E0,0E0,0E0,0E0,0E0,0E0,0E0,0E0,0E0],"parents":[2147483647,0,0,1,1,2,2,3,3,4,4,5,5,6,6,7,7,9,9,11,11,13,13],"right_children":[2,4,6,8,10,12,14,16,-1,18,-1,20,-1,22,-1,-1,-1,-1,-1,-1,-1,-1,-1],"split_conditions":[3.3E1,8.528735E0,1.5347871E3,1.1424658E1,1.2385715E1,1.5780142E2,8.503864E0,7.3115575E-1,7.124164E-3,1.2444444E2,1.3007061E-3,1E0,-1.3308631E-3,1.5910359E3,9.269959E-3,-3.1768323E-3,5.6362282E-3,2.584889E-4,-1.1801137E-2,4.9538177E-4,1.1724188E-2,-6.191822E-3,5.3897486E-3],"split_indices":[13,7,1,22,21,5,8,9,0,5,0,15,0,1,0,0,0,0,0,0,0,0,0],"split_type":[0,0,0,0,0,0,0,0,0,0,0,0,0,0,0,0,0,0,0,0,0,0,0],"sum_hessian":[6.86076E1,4.471625E1,2.389135E1,2.9182547E1,1.5533703E1,1.54705105E1,8.420839E0,2.6073109E1,3.1094387E0,1.3975271E1,1.5584317E0,1.3679768E1,1.7907424E0,7.0217276E0,1.399112E0,2.3608805E1,2.4643035E0,1.7148675E0,1.2260404E1,2.2836497E0,1.1396118E1,5.810124E0,1.2116033E0],"tree_param":{"num_deleted":"0","num_feature":"23","num_nodes":"23","size_leaf_vector":"1"}},{"base_weights":[-1.2062909E-2,-3.2587278E-1,6.468329E-1,-3.7561275E-2,-8.2463735E-1,1.0081348E0,1.2374675E-3,-5.950932E-1,1.06616296E-1,3.666008E-1,-1.073356E0,1.1872854E0,-2.731882E-3,-2.8757378E-1,9.32418E-3,1.5170778E-3,-7.834184E-3,2.1790664E-3,-5.01387E-3,-4.120404E-3,8.006087E-3,-2.9750893E-4,-1.3480486E-2,4.7658978E-4,1.3723222E-2,-5.346078E-3,6.410443E-3],"categories":[],"categories_nodes":[],"categories_segments":[],"categories_sizes":[],"default_left":[0,0,0,0,0,0,0,0,0,0,0,0,0,0,0,0,0,0,0,0,0,0,0,0,0,0,0],"id":16,"left_children":[1,3,5,7,9,11,13,15,17,19,21,23,-1,25,-1,-1,-1,-1,-1,-1,-1,-1,-1,-1,-1,-1,-1],"loss_changes":[1.4674531E1,6.878464E0,5.340866E0,2.595216E0,5.5941544E0,3.6948795E0,2.7475228E0,1.050364E0,1.8599341E0,1.6063623E0,4.1956577E0,2.690525E0,0E0,2.1322687E0,0E0,0E0,0E0,0E0,0E0,0E0,0E0,0E0,0E0,0E0,0E0,0E0,0E0],"parents":[2147483647,0,0,1,1,2,2,3,3,4,4,5,5,6,6,7,7,8,8,9,9,10,10,11,11,13,13],"right_children":[2,4,6,8,10,12,14,16,18,20,22,24,-1,26,-1,-1,-1,-1,-1,-1,-1,-1,-1,-1,-1,-1,-1],"split_conditions":[3.4E1,8.528735E0,1.5347871E3,7.7298703E0,2E-1,1.5780142E2,8.503864E0,1.5E-1,4.6E1,2.6E1,8.415879E0,1.2682927E2,-2.731882E-3,6E-1,9.32418E-3,1.5170778E-3,-7.834184E-3,2.1790664E-3,-5.01387E-3,-4.120404E-3,8.006087E-3,-2.9750893E-4,-1.3480486E-2,4.7658978E-4,1.3723222E-2,-5.346078E-3,6.410443E-3],"split_indices":[13,7,1,7,11,5,8,11,12,12,8,5,0,11,0,0,0,0,0,0,0,0,0,0,0,0,0],"split_type":[0,0,0,0,0,0,0,0,0,0,0,0,0,0,0,0,0,0,0,0,0,0,0,0,0,0,0],"sum_hessian":[6.895156E1,4.704909E1,2.1902472E1,3.0496094E1,1.6552998E1,1.3683217E1,8.219254E0,5.6233196E0,2.4872774E1,2.7772768E0,1.3775721E1,1.20691395E1,1.6140777E0,6.8010426E0,1.4182112E0,1.1716391E0,4.4516807E0,2.1566748E1,3.3060255E0,1.0121043E0,1.7651725E0,3.1013722E0,1.0674349E1,1.8615527E0,1.0207586E1,5.707114E0,1.093928E0],"tree_param":{"num_deleted":"0","num_feature":"23","num_nodes":"27","size_leaf_vector":"1"}},{"base_weights":[8.632465E-3,-2.8991705E-1,6.0322833E-1,-6.1286107E-2,-6.633091E-1,-6.6117113E-3,7.111486E-1,-4.2314348E-1,1.16819486E-1,-7.848048E-1,6.4784107E-3,-1.7741196E-1,8.648785E-1,6.678229E-4,-7.222424E-3,2.3310778E-3,-5.194863E-3,1.9862934E-3,-1.01895565E-2,-7.1951733E-3,2.3273132E-3,7.662505E-4,1.0378852E-2],"categories":[],"categories_nodes":[],"categories_segments":[],"categories_sizes":[],"default_left":[0,0,0,0,0,0,0,0,0,0,0,0,0,0,0,0,0,0,0,0,0,0,0],"id":17,"left_children":[1,3,5,7,9,-1,11,13,15,17,-1,19,21,-1,-1,-1,-1,-1,-1,-1,-1,-1,-1],"loss_changes":[1.24981365E1,3.9623687E0,3.6809053E0,1.9948081E0,3.3289728E0,0E0,3.1805935E0,1.5389094E0,1.6758839E0,4.0379457E0,0E0,1.0786877E0,2.5201025E0,0E0,0E0,0E0,0E0,0E0,0E0,0E0,0E0,0E0,0E0],"parents":[2147483647,0,0,1,1,2,2,3,3,4,4,6,6,7,7,8,8,9,9,11,11,12,12],"right_children":[2,4,6,8,10,-1,12,14,16,18,-1,20,22,-1,-1,-1,-1,-1,-1,-1,-1,-1,-1],"split_conditions":[3.3E1,8.528735E0,7.494585E0,-4.836116E-1,1.7153847E2,-6.6117113E-3,-1.7893007E1,2.647059E-1,4.5E1,2E-1,6.4784107E-3,2.7586207E-1,1E0,6.678229E-4,-7.222424E-3,2.3310778E-3,-5.194863E-3,1.9862934E-3,-1.01895565E-2,-7.1951733E-3,2.3273132E-3,7.662505E-4,1.0378852E-2],"split_indices":[13,7,8,9,19,0,6,11,12,11,0,10,15,0,0,0,0,0,0,0,0,0,0],"split_type":[0,0,0,0,0,0,0,0,0,0,0,0,0,0,0,0,0,0,0,0,0,0,0],"sum_hessian":[6.842039E1,4.58908E1,2.2529585E1,2.918483E1,1.670597E1,1.368594E0,2.116099E1,9.172747E0,2.0012083E1,1.5656613E1,1.0493577E0,3.0983624E0,1.8062628E1,3.771587E0,5.40116E0,1.7455627E1,2.5564551E0,3.0400593E0,1.2616554E1,1.0096086E0,2.088754E0,3.510587E0,1.4552041E1],"tree_param":{"num_deleted":"0","num_feature":"23","num_nodes":"23","size_leaf_vector":"1"}},{"base_weights":[-4.1600354E-3,-8.492735E-2,6.796825E-1,-2.9773855E-1,1.7511864E-1,1.0312462E0,-1.177373E-1,-4.4693895E-2,-7.987272E-1,3.9147478E-1,-2.9808512E-1,1.002564E-3,1.4020894E-2,7.040565E-3,-9.545546E-3,-4.6748226E-3,1.558274E-3,-9.585306E-3,1.967884E-3,6.10683E-3,-8.843958E-4,-4.9636452E-3,5.309096E-3],"categories":[],"categories_nodes":[],"categories_segments":[],"categories_sizes":[],"default_left":[0,0,0,0,0,0,0,0,0,0,0,0,0,0,0,0,0,0,0,0,0,0,0],"id":18,"left_children":[1,3,5,7,9,11,13,15,17,19,21,-1,-1,-1,-1,-1,-1,-1,-1,-1,-1,-1,-1],"loss_changes":[3.9408965E0,3.5811458E0,2.2345593E0,4.4570827E0,3.119414E0,1.7009296E0,2.875351E0,2.1588821E0,2.0712404E0,2.2168438E0,1.8694421E0,0E0,0E0,0E0,0E0,0E0,0E0,0E0,0E0,0E0,0E0,0E0,0E0],"parents":[2147483647,0,0,1,1,2,2,3,3,4,4,5,5,6,6,7,7,8,8,9,9,10,10],"right_children":[2,4,6,8,10,12,14,16,18,20,22,-1,-1,-1,-1,-1,-1,-1,-1,-1,-1,-1,-1],"split_conditions":[1.1967391E1,2E0,1.5300354E2,1.3829787E2,1.5375284E3,1.3547351E2,-5.251232E-1,1.2E2,1.5956522E2,1.0854271E1,1.169663E1,1.002564E-3,1.4020894E-2,7.040565E-3,-9.545546E-3,-4.6748226E-3,1.558274E-3,-9.585306E-3,1.967884E-3,6.10683E-3,-8.843958E-4,-4.9636452E-3,5.309096E-3],"split_indices":[22,16,5,5,1,5,9,20,19,21,21,0,0,0,0,0,0,0,0,0,0,0,0],"split_type":[0,0,0,0,0,0,0,0,0,0,0,0,0,0,0,0,0,0,0,0,0,0,0],"sum_hessian":[6.930642E1,6.2768734E1,6.537685E0,3.4439713E1,2.8329023E1,4.3337903E0,2.2038949E0,2.3605837E1,1.0833875E1,1.955904E1,8.769983E0,1.5964079E0,2.7373822E0,1.1919721E0,1.0119227E0,7.1657996E0,1.6440037E1,9.36735E0,1.4665256E0,1.3239303E1,6.319738E0,7.401043E0,1.3689406E0],"tree_param":{"num_deleted":"0","num_feature":"23","num_nodes":"23","size_leaf_vector":"1"}},{"base_weights":[-8.426234E-3,-3.990074E-1,7.8840804E-1,-1.7625432E-1,-9.927426E-1,1.1340982E-2,9.498757E-2,1.47725465E-2,-8.179245E-1,-6.606066E-2,-1.2355467E0,-2.694066E-1,1.0246865E-2,-6.4400635E-3,1.6427989E-3,-1.0111937E-2,1.344938E-3,-9.0325605E-3,6.9579505E-3,-1.4037005E-2,-3.849645E-4,-5.4393695E-3,6.7624687E-3],"categories":[],"categories_nodes":[],"categories_segments":[],"categories_sizes":[],"default_left":[0,0,0,0,0,0,0,0,0,0,0,0,0,0,0,0,0,0,0,0,0,0,0],"id":19,"left_children":[1,3,5,7,9,-1,11,13,15,17,19,21,-1,-1,-1,-1,-1,-1,-1,-1,-1,-1,-1],"loss_changes":[2.2202444E1,6.1545825E0,5.518014E0,4.4269733E0,2.8075762E0,0E0,3.2908583E0,2.9361782E0,1.6602025E0,3.0027306E0,1.9826603E0,2.2331562E0,0E0,0E0,0E0,0E0,0E0,0E0,0E0,0E0,0E0,0E0,0E0],"parents":[2147483647,0,0,1,1,2,2,3,3,4,4,6,6,7,7,8,8,9,9,10,10,11,11],"right_children":[2,4,6,8,10,-1,12,14,16,18,20,22,-1,-1,-1,-1,-1,-1,-1,-1,-1,-1,-1],"split_conditions":[3.3E1,1.0868853E1,1.5347871E3,4E-1,1.891892E-1,1.1340982E-2,8.503864E0,9.24138E0,9E0,1.2E1,4.6666667E-1,6E-1,1.0246865E-2,-6.4400635E-3,1.6427989E-3,-1.0111937E-2,1.344938E-3,-9.0325605E-3,6.9579505E-3,-1.4037005E-2,-3.849645E-4,-5.4393695E-3,6.7624687E-3],"split_indices":[13,21,1,11,11,0,8,21,16,13,10,11,0,0,0,0,0,0,0,0,0,0,0],"split_type":[0,0,0,0,0,0,0,0,0,0,0,0,0,0,0,0,0,0,0,0,0,0,0],"sum_hessian":[6.932732E1,4.685825E1,2.2469069E1,3.50175E1,1.1840747E1,1.4569992E1,7.899077E0,2.773708E1,7.2804227E0,2.7224324E0,9.118314E0,6.1850696E0,1.7140074E0,4.518694E0,2.3218386E1,6.000966E0,1.2794566E0,1.2086545E0,1.5137779E0,7.8438306E0,1.2744833E0,5.1227107E0,1.062359E0],"tree_param":{"num_deleted":"0","num_feature":"23","num_nodes":"23","size_leaf_vector":"1"}},{"base_weights":[-6.4136535E-2,-1.8208142E-1,4.041546E-1,3.04122E-3,-2.5344253E-1,2.0296756E-2,6.98701E-1,-3.1960002E-1,4.6215132E-1,-5.708904E-3,3.233179E-1,8.8910186E-1,-2.953332E-3,2.9024314E-3,-4.0338123E-3,1.0003302E-2,-4.708669E-3,-3.2007266E-4,8.645523E-3,1.0854568E-2,-1.4126588E-3],"categories":[],"categories_nodes":[],"categories_segments":[],"categories_sizes":[],"default_left":[0,0,0,0,0,0,0,0,0,0,0,0,0,0,0,0,0,0,0,0,0],"id":20,"left_children":[1,3,5,-1,7,9,11,13,15,-1,17,19,-1,-1,-1,-1,-1,-1,-1,-1,-1],"loss_changes":[3.9962838E0,2.0693934E0,1.6364851E0,0E0,2.5440645E0,1.5046101E0,1.8203802E0,2.5146728E0,2.8272743E0,0E0,1.087331E0,1.6013288E0,0E0,0E0,0E0,0E0,0E0,0E0,0E0,0E0,0E0],"parents":[2147483647,0,0,1,1,2,2,4,4,5,5,6,6,7,7,8,8,10,10,11,11],"right_children":[2,4,6,-1,8,10,12,14,16,-1,18,20,-1,-1,-1,-1,-1,-1,-1,-1,-1],"split_conditions":[1E1,1E0,1.4964884E3,3.04122E-3,1.2242424E1,1.4940359E3,4.4982457E-1,1.4553284E3,1.5293005E2,-5.708904E-3,1.6E1,1.5497595E3,-2.953332E-3,2.9024314E-3,-4.0338123E-3,1.0003302E-2,-4.708669E-3,-3.2007266E-4,8.645523E-3,1.0854568E-2,-1.4126588E-3],"split_indices":[16,3,0,0,22,1,9,0,5,0,12,1,0,0,0,0,0,0,0,0,0],"split_type":[0,0,0,0,0,0,0,0,0,0,0,0,0,0,0,0,0,0,0,0,0],"sum_hessian":[7.002145E1,5.642204E1,1.3599404E1,6.8038373E0,4.9618202E1,6.36862E0,7.230785E0,4.5925697E1,3.6925066E0,1.8585793E0,4.5100408E0,6.157011E0,1.0737736E0,5.2495985E0,4.0676098E1,2.295997E0,1.3965098E0,3.2905972E0,1.2194434E0,5.1265836E0,1.0304278E0],"tree_param":{"num_deleted":"0","num_feature":"23","num_nodes":"21","size_leaf_vector":"1"}},{"base_weights":[-3.992499E-2,-3.269291E-1,5.607377E-1,-6.202579E-2,-7.825469E-1,9.0046793E-1,-5.567356E-2,-2.1107206E-1,3.1886423E-1,-9.120604E-1,5.3995363E-3,1.1151979E0,-3.305144E-3,-5.8414894E-1,3.269528E-1,1.0502302E-5,-8.25863E-3,7.641203E-3,-2.715812E-3,-1.0063822E-2,2.464463E-3,1.5035348E-3,1.229391E-2,2.9482198E-4,-1.0987315E-2,-1.9029359E-3,7.460918E-3],"categories":[],"categories_nodes":[],"categories_segments":[],"categories_sizes":[],"default_left":[0,0,0,0,0,0,0,0,0,0,0,0,0,0,0,0,0,0,0,0,0,0,0,0,0,0,0],"id":21,"left_children":[1,3,5,7,9,11,13,15,17,19,-1,21,-1,23,25,-1,-1,-1,-1,-1,-1,-1,-1,-1,-1,-1,-1],"loss_changes":[1.2383523E1,5.807559E0,4.9189754E0,1.8707471E0,3.5331516E0,4.345976E0,2.0518703E0,3.056972E0,2.6611564E0,2.0554895E0,0E0,1.2519722E0,0E0,1.3660706E0,1.4382393E0,0E0,0E0,0E0,0E0,0E0,0E0,0E0,0E0,0E0,0E0,0E0,0E0],"parents":[2147483647,0,0,1,1,2,2,3,3,4,4,5,5,6,6,7,7,8,8,9,9,11,11,13,13,14,14],"right_children":[2,4,6,8,10,12,14,16,18,20,-1,22,-1,24,26,-1,-1,-1,-1,-1,-1,-1,-1,-1,-1,-1,-1],"split_conditions":[3.3E1,8.567742E0,1.5347871E3,1.523464E3,1.2358209E1,1.542654E2,1.5526722E3,1.5058411E3,3.6363637E-1,1.7153847E2,5.3995363E-3,1E0,-3.305144E-3,1.2420091E2,1.23106064E2,1.0502302E-5,-8.25863E-3,7.641203E-3,-2.715812E-3,-1.0063822E-2,2.464463E-3,1.5035348E-3,1.229391E-2,2.9482198E-4,-1.0987315E-2,-1.9029359E-3,7.460918E-3],"split_indices":[13,7,1,1,21,5,1,1,11,19,0,15,0,20,19,0,0,0,0,0,0,0,0,0,0,0,0],"split_type":[0,0,0,0,0,0,0,0,0,0,0,0,0,0,0,0,0,0,0,0,0,0,0,0,0,0,0],"sum_hessian":[6.976983E1,4.7519936E1,2.2249897E1,3.0767416E1,1.6752522E1,1.4047117E1,8.202779E0,2.2434431E1,8.332983E0,1.5540937E1,1.2115842E0,1.2040803E1,2.0063143E0,3.2236538E0,4.979125E0,1.742169E1,5.012741E0,4.5828815E0,3.7501018E0,1.449233E1,1.0486075E0,1.5194299E0,1.0521373E1,1.9002929E0,1.3233609E0,2.4731174E0,2.506008E0],"tree_param":{"num_deleted":"0","num_feature":"23","num_nodes":"27","size_leaf_vector":"1"}},{"base_weights":[-8.020258E-3,7.457683E-2,-7.7830124E-1,-4.6121376E-3,8.67411E-1,5.9533436E-3,-1.1281121E0,1.2057336E-1,-3.1727555E-1,1.1063646E-2,-9.911747E-5,-1.4405416E-2,-1.0936395E-3,-7.7978044E-4,3.0217215E-3,6.919514E-3,-5.172638E-3],"categories":[],"categories_nodes":[],"categories_segments":[],"categories_sizes":[],"default_left":[0,0,0,0,0,0,0,0,0,0,0,0,0,0,0,0,0],"id":22,"left_children":[1,3,5,7,9,-1,11,13,15,-1,-1,-1,-1,-1,-1,-1,-1],"loss_changes":[4.442718E0,3.9690986E0,3.9206734E0,2.3246505E0,1.2143846E0,0E0,1.6677299E0,1.553729E0,3.7843826E0,0E0,0E0,0E0,0E0,0E0,0E0,0E0,0E0],"parents":[2147483647,0,0,1,1,2,2,3,3,4,4,6,6,7,7,8,8],"right_children":[2,4,6,8,10,-1,12,14,16,-1,-1,-1,-1,-1,-1,-1,-1],"split_conditions":[1.5649606E2,1.1967391E1,-8.32681E-1,3.6E1,5.1428574E-1,5.9533436E-3,1.5670732E2,1.2834508E2,1.9354838E-1,1.1063646E-2,-9.911747E-5,-1.4405416E-2,-1.0936395E-3,-7.7978044E-4,3.0217215E-3,6.919514E-3,-5.172638E-3],"split_indices":[5,22,9,12,10,0,4,4,11,0,0,0,0,0,0,0,0],"split_type":[0,0,0,0,0,0,0,0,0,0,0,0,0,0,0,0,0],"sum_hessian":[6.791655E1,6.2154873E1,5.7616735E0,5.741445E1,4.7404227E0,1.0269959E0,4.734678E0,4.1437782E1,1.5976666E1,3.5204892E0,1.2199336E0,3.306584E0,1.4280939E0,2.0067522E1,2.1370262E1,2.235485E0,1.3741181E1],"tree_param":{"num_deleted":"0","num_feature":"23","num_nodes":"17","size_leaf_vector":"1"}},{"base_weights":[-1.8407174E-3,-2.7648857E-1,6.273954E-1,-3.3921895E-3,-7.531901E-1,-5.145903E-3,8.110919E-1,-1.0292137E-1,6.956084E-3,2.1007118E-1,-9.6233577E-1,-2.199391E-3,8.801923E-1,2.1986784E-4,-7.144724E-3,-2.6274063E-3,7.4852435E-3,-1.1150387E-2,4.0799933E-3,3.3781438E-3,1.0396902E-2],"categories":[],"categories_nodes":[],"categories_segments":[],"categories_sizes":[],"default_left":[0,0,0,0,0,0,0,0,0,0,0,0,0,0,0,0,0,0,0,0,0],"id":23,"left_children":[1,3,5,7,9,-1,11,13,-1,15,17,-1,19,-1,-1,-1,-1,-1,-1,-1,-1],"loss_changes":[1.2486583E1,6.5449667E0,5.0230894E0,2.3660421E0,3.891697E0,0E0,1.5686808E0,2.2875142E0,0E0,1.2373745E0,3.6410398E0,0E0,1.2308903E0,0E0,0E0,0E0,0E0,0E0,0E0,0E0,0E0],"parents":[2147483647,0,0,1,1,2,2,3,3,4,4,6,6,7,7,9,9,10,10,12,12],"right_children":[2,4,6,8,10,-1,12,14,-1,16,18,-1,20,-1,-1,-1,-1,-1,-1,-1,-1],"split_conditions":[3.4E1,8.528735E0,7.8011475E0,1.1575221E1,2E-1,-5.145903E-3,-3.0107067E1,4.5E1,6.956084E-3,1.764706E-1,1.7153847E2,-2.199391E-3,1.476898E3,2.1986784E-4,-7.144724E-3,-2.6274063E-3,7.4852435E-3,-1.1150387E-2,4.0799933E-3,3.3781438E-3,1.0396902E-2],"split_indices":[13,7,8,22,11,0,6,12,0,11,19,0,0,0,0,0,0,0,0,0,0],"split_type":[0,0,0,0,0,0,0,0,0,0,0,0,0,0,0,0,0,0,0,0,0],"sum_hessian":[7.0248886E1,4.9293808E1,2.0955076E1,3.1979988E1,1.7313822E1,2.6540906E0,1.8300985E1,2.8740456E1,3.239532E0,3.0878234E0,1.4225998E1,1.0123937E0,1.7288591E1,2.4666431E1,4.074025E0,1.9167686E0,1.1710548E0,1.2967293E1,1.2587047E0,4.6372986E0,1.2651293E1],"tree_param":{"num_deleted":"0","num_feature":"23","num_nodes":"21","size_leaf_vector":"1"}},{"base_weights":[4.520765E-2,-2.6664284E-1,7.074558E-1,-2.8251579E-2,-6.657221E-1,1.0433404E0,5.70109E-2,-1.4668825E-1,8.496739E-1,1.7974466E-1,-8.4362155E-1,1.18974E0,-3.2926598E-3,-2.6268324E-1,9.851239E-3,-6.0570557E-3,7.522186E-4,1.2171866E-2,-6.743002E-4,6.6981046E-3,-4.027758E-3,-9.896971E-3,4.0569706E-3,2.2382542E-4,1.3390556E-2,-5.7182834E-3,6.9837305E-3],"categories":[],"categories_nodes":[],"categories_segments":[],"categories_sizes":[],"default_left":[0,0,0,0,0,0,0,0,0,0,0,0,0,0,0,0,0,0,0,0,0,0,0,0,0,0,0],"id":24,"left_children":[1,3,5,7,9,11,13,15,17,19,21,23,-1,25,-1,-1,-1,-1,-1,-1,-1,-1,-1,-1,-1,-1,-1],"loss_changes":[1.4385698E1,4.496585E0,4.808444E0,3.3227296E0,2.8145795E0,3.3328123E0,2.8240077E0,2.8929644E0,1.36397E0,1.3837334E0,3.1029272E0,2.3130512E0,0E0,2.5444484E0,0E0,0E0,0E0,0E0,0E0,0E0,0E0,0E0,0E0,0E0,0E0,0E0,0E0],"parents":[2147483647,0,0,1,1,2,2,3,3,4,4,5,5,6,6,7,7,8,8,9,9,10,10,11,11,13,13],"right_children":[2,4,6,8,10,12,14,16,18,20,22,24,-1,26,-1,-1,-1,-1,-1,-1,-1,-1,-1,-1,-1,-1,-1],"split_conditions":[3.4E1,8.528735E0,1.5347871E3,1.1424658E1,2E-1,1.5780142E2,8.503864E0,-4.836116E-1,4.6666667E-1,9.157377E0,1.7153847E2,1.2682927E2,-3.2926598E-3,1.5910359E3,9.851239E-3,-6.0570557E-3,7.522186E-4,1.2171866E-2,-6.743002E-4,6.6981046E-3,-4.027758E-3,-9.896971E-3,4.0569706E-3,2.2382542E-4,1.3390556E-2,-5.7182834E-3,6.9837305E-3],"split_indices":[13,7,1,22,11,5,8,9,10,7,19,5,0,1,0,0,0,0,0,0,0,0,0,0,0,0,0],"split_type":[0,0,0,0,0,0,0,0,0,0,0,0,0,0,0,0,0,0,0,0,0,0,0,0,0,0,0],"sum_hessian":[6.774344E1,4.6462E1,2.1281437E1,2.9757221E1,1.670478E1,1.3635916E1,7.6455207E0,2.6953913E1,2.803307E0,2.9021153E0,1.3802665E1,1.2442093E1,1.1938237E0,6.219981E0,1.4255395E0,8.220481E0,1.8733433E1,1.7677189E0,1.0355881E0,1.494753E0,1.4073625E0,1.2543801E1,1.2588633E0,1.5413834E0,1.0900709E1,5.012575E0,1.207406E0],"tree_param":{"num_deleted":"0","num_feature":"23","num_nodes":"27","size_leaf_vector":"1"}},{"base_weights":[3.5268632E-3,9.168693E-2,-7.4612296E-1,-2.987353E-1,2.760177E-1,-2.2454716E-3,-1.2840791E-2,-4.261461E-1,8.224409E-3,4.6706706E-1,-2.4776353E-1,-7.7621103E-4,-8.259447E-3,1.1257983E-3,9.484783E-3,3.229684E-3,-8.2262345E-3],"categories":[],"categories_nodes":[],"categories_segments":[],"categories_sizes":[],"default_left":[0,0,0,0,0,0,0,0,0,0,0,0,0,0,0,0,0],"id":25,"left_children":[1,3,5,7,9,-1,-1,11,-1,13,15,-1,-1,-1,-1,-1,-1],"loss_changes":[4.675929E0,4.6358843E0,1.8007598E0,3.317779E0,4.4685903E0,0E0,0E0,2.6267035E0,0E0,5.391677E0,4.2943697E0,0E0,0E0,0E0,0E0,0E0,0E0],"parents":[2147483647,0,0,1,1,2,2,3,3,4,4,7,7,9,9,10,10],"right_children":[2,4,6,8,10,-1,-1,12,-1,14,16,-1,-1,-1,-1,-1,-1],"split_conditions":[8.6971535E1,-3.4670887E1,9.785234E0,1E1,1.0868853E1,-2.2454716E-3,-1.2840791E-2,8.516898E0,8.224409E-3,9.808989E0,1.4973649E3,-7.7621103E-4,-8.259447E-3,1.1257983E-3,9.484783E-3,3.229684E-3,-8.2262345E-3],"split_indices":[2,2,21,7,21,0,0,7,0,21,0,0,0,0,0,0,0],"split_type":[0,0,0,0,0,0,0,0,0,0,0,0,0,0,0,0,0],"sum_hessian":[6.8716705E1,6.2271206E1,6.445503E0,1.9772139E1,4.249907E1,3.9922357E0,2.4532676E0,1.8311163E1,1.4609743E0,3.1219885E1,1.1279183E1,1.042089E1,7.890273E0,1.869078E1,1.2529104E1,5.8797927E0,5.399391E0],"tree_param":{"num_deleted":"0","num_feature":"23","num_nodes":"17","size_leaf_vector":"1"}},{"base_weights":[2.6040386E-2,-2.995284E-1,6.227445E-1,8.610337E-3,-8.571309E-1,-3.799661E-1,7.9537416E-1,-5.24061E-1,1.5391517E-1,2.9180879E-3,-1.0268931E0,-8.09549E-3,3.7142085E-3,3.247662E-1,1.0833427E0,1.7583865E-3,-8.824778E-3,5.0366363E-3,-6.483825E-4,-1.1769024E-2,1.3524394E-3,7.3352396E-3,-1.0583041E-3,1.7615575E-3,1.2770848E-2],"categories":[],"categories_nodes":[],"categories_segments":[],"categories_sizes":[],"default_left":[0,0,0,0,0,0,0,0,0,0,0,0,0,0,0,0,0,0,0,0,0,0,0,0,0],"id":26,"left_children":[1,3,5,7,9,11,13,15,17,-1,19,-1,-1,21,23,-1,-1,-1,-1,-1,-1,-1,-1,-1,-1],"loss_changes":[1.3563362E1,7.7779894E0,4.5659475E0,2.4118423E0,3.4412441E0,1.6868978E0,2.539816E0,1.8314197E0,1.9022701E0,0E0,2.6441946E0,0E0,0E0,1.7546784E0,2.02639E0,0E0,0E0,0E0,0E0,0E0,0E0,0E0,0E0,0E0,0E0],"parents":[2147483647,0,0,1,1,2,2,3,3,4,4,5,5,6,6,7,7,8,8,10,10,13,13,14,14],"right_children":[2,4,6,8,10,12,14,16,18,-1,20,-1,-1,22,24,-1,-1,-1,-1,-1,-1,-1,-1,-1,-1],"split_conditions":[3.2E1,1.02616825E1,7.8508472E0,9.275862E0,1.724138E-1,1E1,1.2509091E2,8.053763E0,-9.409623E-2,2.9180879E-3,4.6666667E-1,-8.09549E-3,3.7142085E-3,2.4E1,-1.6896048E1,1.7583865E-3,-8.824778E-3,5.0366363E-3,-6.483825E-4,-1.1769024E-2,1.3524394E-3,7.3352396E-3,-1.0583041E-3,1.7615575E-3,1.2770848E-2],"split_indices":[13,21,8,21,11,21,20,8,9,0,10,0,0,12,6,0,0,0,0,0,0,0,0,0,0],"split_type":[0,0,0,0,0,0,0,0,0,0,0,0,0,0,0,0,0,0,0,0,0,0,0,0,0],"sum_hessian":[6.7857544E1,4.422558E1,2.3631964E1,2.9118729E1,1.5106848E1,3.2945695E0,2.0337395E1,5.682111E0,2.3436619E1,1.8522204E0,1.3254627E1,2.046906E0,1.2476634E0,8.528163E0,1.1809232E1,2.0968604E0,3.5852504E0,8.516999E0,1.491962E1,1.1728059E1,1.5265691E0,4.014122E0,4.5140414E0,2.4141834E0,9.395048E0],"tree_param":{"num_deleted":"0","num_feature":"23","num_nodes":"25","size_leaf_vector":"1"}},{"base_weights":[3.230704E-2,-2.6226506E-1,6.3262445E-1,4.5629133E-2,-6.4015985E-1,-5.343546E-1,8.406802E-1,1.9748886E-1,-3.9042774E-1,-7.71031E-1,3.675536E-1,-8.926862E-3,2.308168E-3,2.2164497E-1,9.6507394E-1,-5.334612E-3,3.1937212E-3,1.3528663E-3,-1.1831744E-2,1.7848614E-3,-8.658195E-3,-2.5149472E-3,8.128566E-3,-4.2561665E-3,7.915554E-3,2.6120322E-3,1.1476704E-2],"categories":[],"categories_nodes":[],"categories_segments":[],"categories_sizes":[],"default_left":[0,0,0,0,0,0,0,0,0,0,0,0,0,0,0,0,0,0,0,0,0,0,0,0,0,0,0],"id":27,"left_children":[1,3,5,7,9,11,13,15,17,19,21,-1,-1,23,25,-1,-1,-1,-1,-1,-1,-1,-1,-1,-1,-1,-1],"loss_changes":[1.2468987E1,5.5417757E0,6.080776E0,1.86773E0,3.097433E0,1.3359472E0,1.3318472E0,2.016345E0,3.2109807E0,1.883317E0,1.0671991E0,0E0,0E0,2.054756E0,1.8101635E0,0E0,0E0,0E0,0E0,0E0,0E0,0E0,0E0,0E0,0E0,0E0,0E0],"parents":[2147483647,0,0,1,1,2,2,3,3,4,4,5,5,6,6,7,7,8,8,9,9,10,10,13,13,14,14],"right_children":[2,4,6,8,10,12,14,16,18,20,22,-1,-1,24,26,-1,-1,-1,-1,-1,-1,-1,-1,-1,-1,-1,-1],"split_conditions":[3.3E1,2E1,7.776173E0,1.0318182E1,5.3125E-1,1E1,-1.368919E1,9.258883E0,5.3913105E1,1.7142858E-1,1.5180612E3,-8.926862E-3,2.308168E-3,-1.16799055E-2,1.171123E2,-5.334612E-3,3.1937212E-3,1.3528663E-3,-1.1831744E-2,1.7848614E-3,-8.658195E-3,-2.5149472E-3,8.128566E-3,-4.2561665E-3,7.915554E-3,2.6120322E-3,1.1476704E-2],"split_indices":[13,13,8,21,10,21,6,21,2,11,1,0,0,9,20,0,0,0,0,0,0,0,0,0,0,0,0],"split_type":[0,0,0,0,0,0,0,0,0,0,0,0,0,0,0,0,0,0,0,0,0,0,0,0,0,0,0],"sum_hessian":[6.8573044E1,4.6378513E1,2.2194532E1,2.6040758E1,2.0337757E1,3.1209395E0,1.9073593E1,1.9720177E1,6.320581E0,1.820797E1,2.1297877E0,2.0120451E0,1.1088942E0,3.656939E0,1.5416654E1,2.3357217E0,1.7384455E1,4.2990117E0,2.0215693E0,1.5725356E0,1.6635433E1,1.0731504E0,1.0566373E0,1.8308188E0,1.8261203E0,3.6761956E0,1.1740458E1],"tree_param":{"num_deleted":"0","num_feature":"23","num_nodes":"27","size_leaf_vector":"1"}},{"base_weights":[1.8685123E-2,-1.6470015E-1,3.211502E-1,-6.1521668E-2,-1.0482273E-2,-2.3610722E-1,4.57855E-1,-1.6318397E-1,1.0161493E-2,2.111173E-3,-7.645365E-3,5.666918E-1,-5.6343866E-3,-3.281739E-4,-9.923492E-3,-4.1948715E-3,6.471785E-3],"categories":[],"categories_nodes":[],"categories_segments":[],"categories_sizes":[],"default_left":[0,0,0,0,0,0,0,0,0,0,0,0,0,0,0,0,0],"id":28,"left_children":[1,3,5,7,-1,9,11,13,-1,-1,-1,15,-1,-1,-1,-1,-1],"loss_changes":[3.8810792E0,3.9126027E0,2.1184437E0,4.5621214E0,0E0,1.5458714E0,2.7125807E0,4.0242505E0,0E0,0E0,0E0,1.8554897E0,0E0,0E0,0E0,0E0,0E0],"parents":[2147483647,0,0,1,1,2,2,3,3,5,5,6,6,7,7,11,11],"right_children":[2,4,6,8,-1,10,12,14,-1,-1,-1,16,-1,-1,-1,-1,-1],"split_conditions":[1E0,1.5649606E2,-1.3085084E1,1.1967391E1,-1.0482273E-2,1.4820262E2,6.086956E-1,5E1,1.0161493E-2,2.111173E-3,-7.645365E-3,1.1950549E2,-5.6343866E-3,-3.281739E-4,-9.923492E-3,-4.1948715E-3,6.471785E-3],"split_indices":[17,5,6,22,0,5,11,12,0,0,0,5,0,0,0,0,0],"split_type":[0,0,0,0,0,0,0,0,0,0,0,0,0,0,0,0,0],"sum_hessian":[6.8016556E1,4.2627117E1,2.5389442E1,3.9127438E1,3.499678E0,4.85827E0,2.0531174E1,3.6529953E1,2.5974836E0,2.9565449E0,1.9017254E0,1.895618E1,1.5749918E0,3.2465157E1,4.0647974E0,1.1125501E0,1.7843632E1],"tree_param":{"num_deleted":"0","num_feature":"23","num_nodes":"17","size_leaf_vector":"1"}},{"base_weights":[3.267533E-2,-2.6719594E-1,6.989905E-1,-1.2348437E-2,-6.8450457E-1,-6.169068E-3,8.1572616E-1,-5.9876824E-3,9.611056E-2,-7.9379076E-1,4.2502377E-3,-3.6972545E-3,9.0263784E-1,6.2499894E-5,7.187027E-3,-5.133267E-3,-1.2326607E-2,-9.0436086E-5,9.737091E-3],"categories":[],"categories_nodes":[],"categories_segments":[],"categories_sizes":[],"default_left":[0,0,0,0,0,0,0,0,0,0,0,0,0,0,0,0,0,0,0],"id":29,"left_children":[1,3,5,7,9,-1,11,-1,13,15,-1,-1,17,-1,-1,-1,-1,-1,-1],"loss_changes":[1.3895065E1,5.1003103E0,3.816616E0,2.019197E0,2.543624E0,0E0,2.419342E0,0E0,1.4999114E0,1.4489136E0,0E0,0E0,1.2496634E0,0E0,0E0,0E0,0E0,0E0,0E0],"parents":[2147483647,0,0,1,1,2,2,3,3,4,4,6,6,8,8,9,9,12,12],"right_children":[2,4,6,8,10,-1,12,-1,14,16,-1,-1,18,-1,-1,-1,-1,-1,-1],"split_conditions":[3.4E1,8.517858E0,7.494585E0,9.145162E0,1.0037914E1,-6.169068E-3,-3.0107067E1,-5.9876824E-3,3E1,1.5179584E2,4.2502377E-3,-3.6972545E-3,7.5823007E0,6.2499894E-5,7.187027E-3,-5.133267E-3,-1.2326607E-2,-9.0436086E-5,9.737091E-3],"split_indices":[13,7,8,21,7,0,6,0,13,5,0,0,7,0,0,0,0,0,0],"split_type":[0,0,0,0,0,0,0,0,0,0,0,0,0,0,0,0,0,0,0],"sum_hessian":[6.760708E1,4.703724E1,2.056984E1,2.9842327E1,1.7194912E1,1.3269703E0,1.9242868E1,3.9522858E0,2.5890041E1,1.5912167E1,1.2827457E0,1.0921541E0,1.8150715E1,2.3507215E1,2.382827E0,1.1031827E1,4.88034E0,1.3757498E0,1.6774965E1],"tree_param":{"num_deleted":"0","num_feature":"23","num_nodes":"19","size_leaf_vector":"1"}},{"base_weights":[8.336E-2,-1.9442974E-1,6.767221E-1,4.8122454E-2,-6.090616E-1,-7.4150274E-3,7.972885E-1,-2.0017877E-1,3.514442E-1,-7.200626E-1,4.32123E-3,1.0907018E0,3.570977E-1,-8.010547E-3,-1.8923434E-4,1.0663766E-3,8.425833E-3,-1.6674189E-3,-9.912588E-3,2.1592188E-3,1.3161924E-2,-4.4983884E-4,9.541795E-3],"categories":[],"categories_nodes":[],"categories_segments":[],"categories_sizes":[],"default_left":[0,0,0,0,0,0,0,0,0,0,0,0,0,0,0,0,0,0,0,0,0,0,0],"id":30,"left_children":[1,3,5,7,9,-1,11,13,15,17,-1,19,21,-1,-1,-1,-1,-1,-1,-1,-1,-1,-1],"loss_changes":[1.1268717E1,4.735841E0,4.3134546E0,2.3639283E0,2.3158264E0,0E0,2.2640781E0,1.8779899E0,1.6019237E0,2.2430868E0,0E0,2.0515137E0,2.3726223E0,0E0,0E0,0E0,0E0,0E0,0E0,0E0,0E0,0E0,0E0],"parents":[2147483647,0,0,1,1,2,2,3,3,4,4,6,6,7,7,8,8,9,9,11,11,12,12],"right_children":[2,4,6,8,10,-1,12,14,16,18,-1,20,22,-1,-1,-1,-1,-1,-1,-1,-1,-1,-1],"split_conditions":[3.4E1,8.528735E0,7.494585E0,8.491647E0,1E1,-7.4150274E-3,1.521594E3,-6E0,1.523464E3,1.0324022E1,4.32123E-3,1.19305016E2,1.5728308E3,-8.010547E-3,-1.8923434E-4,1.0663766E-3,8.425833E-3,-1.6674189E-3,-9.912588E-3,2.1592188E-3,1.3161924E-2,-4.4983884E-4,9.541795E-3],"split_indices":[13,7,8,7,7,0,1,16,1,21,0,20,1,0,0,0,0,0,0,0,0,0,0],"split_type":[0,0,0,0,0,0,0,0,0,0,0,0,0,0,0,0,0,0,0,0,0,0,0],"sum_hessian":[6.656748E1,4.5798622E1,2.0768862E1,2.9453054E1,1.6345568E1,1.2237465E0,1.9545115E1,1.6382376E1,1.3070678E1,1.5049551E1,1.2960167E0,1.0841089E1,8.704025E0,3.0040913E0,1.3378284E1,9.535076E0,3.5356019E0,5.4811726E0,9.568378E0,2.6229684E0,8.218122E0,5.753927E0,2.9500985E0],"tree_param":{"num_deleted":"0","num_feature":"23","num_nodes":"23","size_leaf_vector":"1"}},{"base_weights":[-3.4212623E-2,-5.695154E-1,6.056153E-2,-1.5167324E-1,-1.2498555E-2,1.3970052E-1,-5.309199E-1,-4.162514E-1,3.7145289E-3,-7.2793798E-3,1.9171661E-1,1.6396999E-4,-1.1401441E-2,2.5450843E-3,-6.737818E-3,-1.0292657E-3,3.1863067E-3],"categories":[],"categories_nodes":[],"categories_segments":[],"categories_sizes":[],"default_left":[0,0,0,0,0,0,0,0,0,0,0,0,0,0,0,0,0],"id":31,"left_children":[1,3,5,7,-1,9,11,13,-1,-1,15,-1,-1,-1,-1,-1,-1],"loss_changes":[3.594414E0,2.8382013E0,2.9070232E0,1.2254062E0,0E0,2.5842688E0,2.4694998E0,1.1404698E0,0E0,0E0,1.9734405E0,0E0,0E0,0E0,0E0,0E0,0E0],"parents":[2147483647,0,0,1,1,2,2,3,3,5,5,6,6,7,7,10,10],"right_children":[2,4,6,8,-1,10,12,14,-1,-1,16,-1,-1,-1,-1,-1,-1],"split_conditions":[-1.5948905E1,1.5300354E2,8.6971535E1,1.3E1,-1.2498555E-2,1.1747573E2,9.586206E0,2.5714287E-1,3.7145289E-3,-7.2793798E-3,-3.61104E1,1.6396999E-4,-1.1401441E-2,2.5450843E-3,-6.737818E-3,-1.0292657E-3,3.1863067E-3],"split_indices":[6,5,2,16,0,5,21,11,0,0,2,0,0,0,0,0,0],"split_type":[0,0,0,0,0,0,0,0,0,0,0,0,0,0,0,0,0],"sum_hessian":[6.916997E1,9.650859E0,5.9519104E1,6.7364774E0,2.9143815E0,5.3169014E1,6.350091E0,4.6094737E0,2.1270037E0,2.272291E0,5.0896725E1,3.8575854E0,2.4925053E0,1.2820363E0,3.3274374E0,1.5379874E1,3.551685E1],"tree_param":{"num_deleted":"0","num_feature":"23","num_nodes":"17","size_leaf_vector":"1"}},{"base_weights":[-4.066867E-3,-3.230626E-1,5.188403E-1,-3.3594083E-2,-7.10789E-1,-6.6943704E-3,6.2429684E-1,-1.4966016E-1,7.2413995E-3,1.0508212E-1,-9.2276824E-1,4.7313884E-1,1.3464808E-2,-2.7959465E-4,-8.7743625E-3,-3.4514775E-3,6.9487384E-3,2.2232356E-3,-1.0268943E-2,6.717248E-3,-1.050468E-3],"categories":[],"categories_nodes":[],"categories_segments":[],"categories_sizes":[],"default_left":[0,0,0,0,0,0,0,0,0,0,0,0,0,0,0,0,0,0,0,0,0],"id":32,"left_children":[1,3,5,7,9,-1,11,13,-1,15,17,19,-1,-1,-1,-1,-1,-1,-1,-1,-1],"loss_changes":[1.1884733E1,4.9419556E0,3.8012404E0,2.4286034E0,3.359291E0,0E0,2.126505E0,2.07517E0,0E0,1.5112486E0,2.0257635E0,2.6512394E0,0E0,0E0,0E0,0E0,0E0,0E0,0E0,0E0,0E0],"parents":[2147483647,0,0,1,1,2,2,3,3,4,4,6,6,7,7,9,9,10,10,11,11],"right_children":[2,4,6,8,10,-1,12,14,-1,16,18,20,-1,-1,-1,-1,-1,-1,-1,-1,-1],"split_conditions":[3.1E1,1.20103096E2,7.494585E0,1.3913824E2,2E-1,-6.6943704E-3,1.5884544E2,1.3367003E2,7.2413995E-3,1.764706E-1,-1.222665E0,1.4673367E2,1.3464808E-2,-2.7959465E-4,-8.7743625E-3,-3.4514775E-3,6.9487384E-3,2.2232356E-3,-1.0268943E-2,6.717248E-3,-1.050468E-3],"split_indices":[13,20,8,5,11,0,4,5,0,11,9,5,0,0,0,0,0,0,0,0,0],"split_type":[0,0,0,0,0,0,0,0,0,0,0,0,0,0,0,0,0,0,0,0,0],"sum_hessian":[6.924432E1,4.3245125E1,2.5999195E1,2.5382053E1,1.7863071E1,1.6833487E0,2.4315847E1,2.2706474E1,2.675579E0,3.788E0,1.4075071E1,2.1475937E1,2.8399093E0,2.034307E1,2.3634055E0,2.383388E0,1.4046121E0,1.0785825E0,1.2996489E1,1.5865074E1,5.610863E0],"tree_param":{"num_deleted":"0","num_feature":"23","num_nodes":"21","size_leaf_vector":"1"}},{"base_weights":[4.0852904E-2,-1.3513716E-1,2.937042E-1,-1.1000428E-2,-2.9387852E-2,1.3616492E-1,8.569417E-1,5.2783597E-1,-1.6557258E-1,3.6126047E-1,-2.658328E-1,1.2319401E-2,1.1211133E-1,7.6471954E-3,-1.5746139E-3,5.106263E-4,-7.0113796E-3,5.797389E-3,-1.7401382E-3,-5.516382E-3,2.9136103E-3,-7.3836325E-3,8.817908E-3],"categories":[],"categories_nodes":[],"categories_segments":[],"categories_sizes":[],"default_left":[0,0,0,0,0,0,0,0,0,0,0,0,0,0,0,0,0,0,0,0,0,0,0],"id":33,"left_children":[1,3,5,-1,7,9,11,13,15,17,19,-1,21,-1,-1,-1,-1,-1,-1,-1,-1,-1,-1],"loss_changes":[3.200417E0,4.310867E0,2.497734E0,0E0,3.0763507E0,2.2870336E0,1.6078658E0,1.4149599E0,3.796465E0,1.9656725E0,1.6365534E0,0E0,2.741465E0,0E0,0E0,0E0,0E0,0E0,0E0,0E0,0E0,0E0,0E0],"parents":[2147483647,0,0,1,1,2,2,4,4,5,5,6,6,7,7,8,8,9,9,10,10,12,12],"right_children":[2,4,6,-1,8,10,12,14,16,18,20,-1,22,-1,-1,-1,-1,-1,-1,-1,-1,-1,-1],"split_conditions":[3E0,-1.6896048E1,1.0840336E1,-1.1000428E-2,2.3529412E-1,1.5204302E3,3.1707317E-1,1.1367458E1,1.0638298E1,1.5440802E3,4.8E-1,1.2319401E-2,1.4926985E3,7.6471954E-3,-1.5746139E-3,5.106263E-4,-7.0113796E-3,5.797389E-3,-1.7401382E-3,-5.516382E-3,2.9136103E-3,-7.3836325E-3,8.817908E-3],"split_indices":[16,6,22,0,11,0,10,6,21,1,10,0,0,0,0,0,0,0,0,0,0,0,0],"split_type":[0,0,0,0,0,0,0,0,0,0,0,0,0,0,0,0,0,0,0,0,0,0,0],"sum_hessian":[7.002865E1,4.1564438E1,2.8464212E1,3.1766691E0,3.8387768E1,2.321317E1,5.2510433E0,6.9744987E0,3.1413269E1,1.4945748E1,8.267421E0,3.0576339E0,2.1934094E0,5.0968122E0,1.8776863E0,2.3010302E1,8.402968E0,1.0554669E1,4.39108E0,5.4710746E0,2.7963464E0,1.0613426E0,1.1320668E0],"tree_param":{"num_deleted":"0","num_feature":"23","num_nodes":"23","size_leaf_vector":"1"}},{"base_weights":[-2.3387806E-2,-2.7897495E-1,5.491865E-1,-4.395045E-2,-6.7835164E-1,-8.069928E-3,6.66302E-1,4.654731E-3,-1.7666969E-1,3.377766E-1,-8.8182324E-1,-2.565548E-4,8.1741816E-1,-4.103342E-3,2.1669157E-3,-3.712231E-3,7.249179E-3,-1.0203111E-2,4.102396E-3,4.046915E-3,1.1406655E-2],"categories":[],"categories_nodes":[],"categories_segments":[],"categories_sizes":[],"default_left":[0,0,0,0,0,0,0,0,0,0,0,0,0,0,0,0,0,0,0,0,0],"id":34,"left_children":[1,3,5,7,9,-1,11,-1,13,15,17,-1,19,-1,-1,-1,-1,-1,-1,-1,-1],"loss_changes":[1.079763E1,4.7526674E0,4.1565895E0,2.3231776E0,4.186181E0,0E0,2.2713633E0,0E0,2.572392E0,1.3287847E0,3.271861E0,0E0,1.8990078E0,0E0,0E0,0E0,0E0,0E0,0E0,0E0,0E0],"parents":[2147483647,0,0,1,1,2,2,3,3,4,4,6,6,8,8,9,9,10,10,12,12],"right_children":[2,4,6,8,10,-1,12,-1,14,16,18,-1,20,-1,-1,-1,-1,-1,-1,-1,-1],"split_conditions":[3.4E1,8.567742E0,7.494585E0,7.857461E0,2E-1,-8.069928E-3,-1.2819917E1,4.654731E-3,1E0,1.2118056E2,1.7153847E2,-2.565548E-4,1.2553191E2,-4.103342E-3,2.1669157E-3,-3.712231E-3,7.249179E-3,-1.0203111E-2,4.102396E-3,4.046915E-3,1.1406655E-2],"split_indices":[13,7,8,8,11,0,6,0,17,19,19,0,20,0,0,0,0,0,0,0,0],"split_type":[0,0,0,0,0,0,0,0,0,0,0,0,0,0,0,0,0,0,0,0,0],"sum_hessian":[7.173629E1,4.995156E1,2.1784729E1,3.2144985E1,1.7806578E1,1.2634617E0,2.0521267E1,6.125591E0,2.6019394E1,2.8606334E0,1.4945944E1,3.8271334E0,1.6694134E1,1.6296057E1,9.723336E0,1.0248567E0,1.8357767E0,1.3689029E1,1.2569156E0,8.321319E0,8.372815E0],"tree_param":{"num_deleted":"0","num_feature":"23","num_nodes":"21","size_leaf_vector":"1"}},{"base_weights":[-8.616946E-3,-2.8039104E-1,5.608088E-1,-2.314464E-3,-7.4791056E-1,-6.1886404E-3,6.661235E-1,8.001378E-3,-7.9766296E-2,2.5699517E-1,-9.4877833E-1,2.857581E-1,9.3188375E-1,-6.8207905E-3,2.627211E-4,-3.471625E-3,6.222082E-3,-1.0960542E-2,4.0792436E-3,4.238181E-3,-4.8796493E-3,2.2878808E-4,1.1158321E-2],"categories":[],"categories_nodes":[],"categories_segments":[],"categories_sizes":[],"default_left":[0,0,0,0,0,0,0,0,0,0,0,0,0,0,0,0,0,0,0,0,0,0,0],"id":35,"left_children":[1,3,5,7,9,-1,11,-1,13,15,17,19,21,-1,-1,-1,-1,-1,-1,-1,-1,-1,-1],"loss_changes":[1.1329112E1,6.4379973E0,3.3512645E0,2.0565822E0,3.972268E0,0E0,1.9777508E0,0E0,1.9435503E0,1.068567E0,3.5655575E0,1.336236E0,2.0856972E0,0E0,0E0,0E0,0E0,0E0,0E0,0E0,0E0,0E0,0E0],"parents":[2147483647,0,0,1,1,2,2,3,3,4,4,6,6,8,8,9,9,10,10,11,11,12,12],"right_children":[2,4,6,8,10,-1,12,-1,14,16,18,20,22,-1,-1,-1,-1,-1,-1,-1,-1,-1,-1],"split_conditions":[3.3E1,8.528735E0,7.587242E0,7.293839E0,2E-1,-6.1886404E-3,1.2483871E2,8.001378E-3,9.145162E0,1.2E1,1.7153847E2,1.22907486E2,-1.368919E1,-6.8207905E-3,2.627211E-4,-3.471625E-3,6.222082E-3,-1.0960542E-2,4.0792436E-3,4.238181E-3,-4.8796493E-3,2.2878808E-4,1.1158321E-2],"split_indices":[13,7,8,8,11,0,20,0,21,13,19,20,6,0,0,0,0,0,0,0,0,0,0],"split_type":[0,0,0,0,0,0,0,0,0,0,0,0,0,0,0,0,0,0,0,0,0,0,0],"sum_hessian":[7.11906E1,4.8534E1,2.2656597E1,3.1062965E1,1.7471033E1,1.457232E0,2.1199364E1,1.912933E0,2.9150032E1,2.8639216E0,1.4607112E1,9.573163E0,1.1626202E1,3.5504737E0,2.5599558E1,1.097611E0,1.7663106E0,1.3350028E1,1.2570833E0,8.507377E0,1.0657866E0,2.1459725E0,9.480229E0],"tree_param":{"num_deleted":"0","num_feature":"23","num_nodes":"23","size_leaf_vector":"1"}},{"base_weights":[-1.0825682E-2,-2.5926358E-1,4.8730645E-1,9.989248E-3,-6.4050335E-1,-4.8974353E-1,6.6266453E-1,1.9498302E-1,-4.9890926E-1,6.048384E-3,-7.8549045E-1,-8.546925E-3,3.253126E-3,-7.7972113E-4,7.7397925E-1,1.5717556E-4,6.6940165E-3,3.036495E-3,-6.6223894E-3,-5.1000626E-3,8.5848905E-3,-9.257605E-3,-2.809726E-4,2.09883E-4,8.825035E-3],"categories":[],"categories_nodes":[],"categories_segments":[],"categories_sizes":[],"default_left":[0,0,0,0,0,0,0,0,0,0,0,0,0,0,0,0,0,0,0,0,0,0,0,0,0],"id":36,"left_children":[1,3,5,7,9,11,13,15,17,19,21,-1,-1,-1,23,-1,-1,-1,-1,-1,-1,-1,-1,-1,-1],"loss_changes":[8.722535E0,4.830873E0,4.344386E0,2.7831748E0,1.829844E0,1.5110419E0,1.7353535E0,1.8301293E0,1.2349517E0,2.443185E0,1.6643457E0,0E0,0E0,0E0,1.4322863E0,0E0,0E0,0E0,0E0,0E0,0E0,0E0,0E0,0E0,0E0],"parents":[2147483647,0,0,1,1,2,2,3,3,4,4,5,5,6,6,7,7,8,8,9,9,10,10,14,14],"right_children":[2,4,6,8,10,12,14,16,18,20,22,-1,-1,-1,24,-1,-1,-1,-1,-1,-1,-1,-1,-1,-1],"split_conditions":[3.3E1,1.2182741E2,7.8011475E0,4E-1,2E-1,1E1,-1.7893007E1,1.523464E3,1.4564751E3,1.764706E-1,1.192638E1,-8.546925E-3,3.253126E-3,-7.7972113E-4,1E0,1.5717556E-4,6.6940165E-3,3.036495E-3,-6.6223894E-3,-5.1000626E-3,8.5848905E-3,-9.257605E-3,-2.809726E-4,2.09883E-4,8.825035E-3],"split_indices":[13,20,8,11,11,21,6,1,0,11,22,0,0,0,15,0,0,0,0,0,0,0,0,0,0],"split_type":[0,0,0,0,0,0,0,0,0,0,0,0,0,0,0,0,0,0,0,0,0,0,0,0,0],"sum_hessian":[6.846145E1,4.5999325E1,2.2462124E1,2.7529942E1,1.8469383E1,3.1451793E0,1.9316946E1,2.0642775E1,6.8871675E0,3.5585883E0,1.4910794E1,2.1388564E0,1.006323E0,2.5630593E0,1.6753885E1,1.5731532E1,4.911241E0,1.01933E0,5.8678374E0,2.4668844E0,1.0917039E0,1.2393251E1,2.5175428E0,2.2608027E0,1.4493083E1],"tree_param":{"num_deleted":"0","num_feature":"23","num_nodes":"25","size_leaf_vector":"1"}},{"base_weights":[-2.9253993E-2,-2.8778133E-1,5.0953126E-1,-1.42092155E-2,-7.410725E-1,8.205694E-1,-5.43363E-4,3.7188092E-1,-2.1413334E-1,-8.71112E-1,3.7418E-3,-3.2989543E-3,1.0103989E0,-3.9386177E-1,5.845832E-3,5.141336E-3,-2.7021414E-3,3.4369875E-3,-3.5408838E-3,1.1922492E-3,-1.0627742E-2,1.2928858E-2,5.2686143E-3,-1.0315913E-2,4.8536665E-4],"categories":[],"categories_nodes":[],"categories_segments":[],"categories_sizes":[],"default_left":[0,0,0,0,0,0,0,0,0,0,0,0,0,0,0,0,0,0,0,0,0,0,0,0,0],"id":37,"left_children":[1,3,5,7,9,11,13,15,17,19,-1,-1,21,23,-1,-1,-1,-1,-1,-1,-1,-1,-1,-1,-1],"loss_changes":[9.828597E0,5.8934703E0,3.6334534E0,2.4501243E0,2.9218702E0,3.4400816E0,2.4565253E0,1.1292797E0,1.7508804E0,3.2264757E0,0E0,0E0,1.0203562E0,1.8507416E0,0E0,0E0,0E0,0E0,0E0,0E0,0E0,0E0,0E0,0E0,0E0],"parents":[2147483647,0,0,1,1,2,2,3,3,4,4,5,5,6,6,7,7,8,8,9,9,12,12,13,13],"right_children":[2,4,6,8,10,12,14,16,18,20,-1,-1,22,24,-1,-1,-1,-1,-1,-1,-1,-1,-1,-1,-1],"split_conditions":[3.3E1,8.528735E0,1.5347871E3,1.1872146E2,1.2741832E0,1E0,1.5728308E3,4.6E1,1.9444445E-1,2E-1,3.7418E-3,-3.2989543E-3,3.4042552E-1,9.854922E0,5.845832E-3,5.141336E-3,-2.7021414E-3,3.4369875E-3,-3.5408838E-3,1.1922492E-3,-1.0627742E-2,1.2928858E-2,5.2686143E-3,-1.0315913E-2,4.8536665E-4],"split_indices":[13,7,1,19,9,15,1,12,11,11,0,0,11,21,0,0,0,0,0,0,0,0,0,0,0],"split_type":[0,0,0,0,0,0,0,0,0,0,0,0,0,0,0,0,0,0,0,0,0,0,0,0,0],"sum_hessian":[6.850903E1,4.66099E1,2.1899132E1,2.9710342E1,1.6899559E1,1.3225586E1,8.673546E0,9.842521E0,1.9867823E1,1.5330875E1,1.5686842E0,1.7686712E0,1.1456915E1,5.3824053E0,3.291141E0,8.220582E0,1.6219387E0,3.6929007E0,1.6174921E1,2.5471992E0,1.2783676E1,6.175389E0,5.2815256E0,1.6590393E0,3.723366E0],"tree_param":{"num_deleted":"0","num_feature":"23","num_nodes":"25","size_leaf_vector":"1"}},{"base_weights":[2.5961546E-2,-2.5277954E-1,5.9167147E-1,-1.1170864E-2,-6.7787576E-1,9.729903E-1,-7.5263664E-2,-1.8309E-1,4.5370853E-1,-8.023043E-1,6.338887E-3,1.103275E0,-1.6803611E-3,-4.243848E-1,9.991912E-3,4.7541066E-4,-6.80248E-3,7.137783E-3,-5.1699555E-3,1.2994616E-3,-1.0175882E-2,2.432697E-3,1.2173321E-2,-7.013962E-3,5.852249E-3],"categories":[],"categories_nodes":[],"categories_segments":[],"categories_sizes":[],"default_left":[0,0,0,0,0,0,0,0,0,0,0,0,0,0,0,0,0,0,0,0,0,0,0,0,0],"id":38,"left_children":[1,3,5,7,9,11,13,15,17,19,-1,21,-1,23,-1,-1,-1,-1,-1,-1,-1,-1,-1,-1,-1],"loss_changes":[1.1168601E1,4.872429E0,6.0154276E0,2.585573E0,3.3162818E0,2.4060078E0,3.9605393E0,2.734995E0,2.5756757E0,3.3741016E0,0E0,1.0319061E0,0E0,2.5968413E0,0E0,0E0,0E0,0E0,0E0,0E0,0E0,0E0,0E0,0E0,0E0],"parents":[2147483647,0,0,1,1,2,2,3,3,4,4,5,5,6,6,7,7,8,8,9,9,11,11,13,13],"right_children":[2,4,6,8,10,12,14,16,18,20,-1,22,-1,24,-1,-1,-1,-1,-1,-1,-1,-1,-1,-1,-1],"split_conditions":[3.3E1,8.567742E0,1.5347871E3,1.523464E3,1.7153847E2,1.5780142E2,8.503864E0,1.4973844E3,1.2651007E2,2E-1,6.338887E-3,1.2682927E2,-1.6803611E-3,5.833333E-1,9.991912E-3,4.7541066E-4,-6.80248E-3,7.137783E-3,-5.1699555E-3,1.2994616E-3,-1.0175882E-2,2.432697E-3,1.2173321E-2,-7.013962E-3,5.852249E-3],"split_indices":[13,7,1,1,19,5,8,1,20,11,0,5,0,11,0,0,0,0,0,0,0,0,0,0,0],"split_type":[0,0,0,0,0,0,0,0,0,0,0,0,0,0,0,0,0,0,0,0,0,0,0,0,0],"sum_hessian":[6.887936E1,4.651385E1,2.236551E1,3.0311954E1,1.6201897E1,1.3937739E1,8.427772E0,2.257102E1,7.7409344E0,1.5152929E1,1.0489669E0,1.2539086E1,1.3986523E0,6.8175707E0,1.6102008E0,1.6036213E1,6.5348067E0,6.3139806E0,1.4269537E0,2.9171407E0,1.2235788E1,1.8350979E0,1.0703989E1,5.58929E0,1.2282803E0],"tree_param":{"num_deleted":"0","num_feature":"23","num_nodes":"25","size_leaf_vector":"1"}},{"base_weights":[-1.1498504E-2,-2.5989962E-1,6.201575E-1,-4.1261382E-2,-6.2840736E-1,-7.3469295E-3,7.349479E-1,4.2575307E-2,-7.297248E-3,-7.557253E-1,5.132191E-3,9.302445E-1,2.6769653E-1,-3.854405E-3,1.6783718E-3,2.3142688E-3,-9.7188745E-3,1.058667E-2,1.6971348E-3,-1.0587822E-3,9.916333E-3],"categories":[],"categories_nodes":[],"categories_segments":[],"categories_sizes":[],"default_left":[0,0,0,0,0,0,0,0,0,0,0,0,0,0,0,0,0,0,0,0,0],"id":39,"left_children":[1,3,5,7,9,-1,11,13,-1,15,-1,17,19,-1,-1,-1,-1,-1,-1,-1,-1],"loss_changes":[1.0959141E1,4.010546E0,3.6068687E0,1.9077108E0,3.089223E0,0E0,1.4555283E0,1.6693103E0,0E0,3.8791475E0,0E0,1.0675058E0,1.9737957E0,0E0,0E0,0E0,0E0,0E0,0E0,0E0,0E0],"parents":[2147483647,0,0,1,1,2,2,3,3,4,4,6,6,7,7,9,9,11,11,12,12],"right_children":[2,4,6,8,10,-1,12,14,-1,16,-1,18,20,-1,-1,-1,-1,-1,-1,-1,-1],"split_conditions":[3.6E1,8.567742E0,7.494585E0,1.430622E2,1.6950354E2,-7.3469295E-3,1.5347871E3,7.8461537E0,-7.297248E-3,2E-1,5.132191E-3,9.452381E0,8.503864E0,-3.854405E-3,1.6783718E-3,2.3142688E-3,-9.7188745E-3,1.058667E-2,1.6971348E-3,-1.0587822E-3,9.916333E-3],"split_indices":[13,7,8,20,19,0,1,7,0,11,0,7,8,0,0,0,0,0,0,0,0],"split_type":[0,0,0,0,0,0,0,0,0,0,0,0,0,0,0,0,0,0,0,0,0],"sum_hessian":[6.781889E1,4.909905E1,1.8719845E1,3.151371E1,1.7585337E1,1.0403609E0,1.7679483E1,2.8929071E1,2.584639E0,1.6125046E1,1.4602909E0,1.1769366E1,5.9101176E0,6.0792828E0,2.2849789E1,2.8840015E0,1.3241045E1,9.733729E0,2.035637E0,4.4615564E0,1.4485608E0],"tree_param":{"num_deleted":"0","num_feature":"23","num_nodes":"21","size_leaf_vector":"1"}},{"base_weights":[-8.381901E-3,-2.4333036E-1,5.100047E-1,-1.0379703E-2,-6.482249E-1,-7.681636E-3,6.2397784E-1,-5.792295E-1,1.1132418E-1,1.23810545E-1,-8.1843126E-1,-1.6266112E-1,7.840996E-1,2.7348327E-3,-8.924123E-3,-2.3745394E-3,3.7005984E-3,5.4177684E-3,-3.8598895E-3,1.3038618E-3,-9.459239E-3,2.7402174E-3,-6.7892415E-3,9.1892425E-3,3.4246861E-4],"categories":[],"categories_nodes":[],"categories_segments":[],"categories_sizes":[],"default_left":[0,0,0,0,0,0,0,0,0,0,0,0,0,0,0,0,0,0,0,0,0,0,0,0,0],"id":40,"left_children":[1,3,5,7,9,-1,11,13,15,17,19,21,23,-1,-1,-1,-1,-1,-1,-1,-1,-1,-1,-1,-1],"loss_changes":[8.519815E0,4.5311966E0,3.6582613E0,2.249206E0,2.4081335E0,0E0,2.7206564E0,1.7723706E0,2.5094154E0,1.0698968E0,1.8791962E0,1.1577023E0,1.7152243E0,0E0,0E0,0E0,0E0,0E0,0E0,0E0,0E0,0E0,0E0,0E0,0E0],"parents":[2147483647,0,0,1,1,2,2,3,3,4,4,6,6,7,7,8,8,9,9,10,10,11,11,12,12],"right_children":[2,4,6,8,10,-1,12,14,16,18,20,22,24,-1,-1,-1,-1,-1,-1,-1,-1,-1,-1,-1,-1],"split_conditions":[3.4E1,8.528735E0,7.494585E0,9.145162E0,2E-1,-7.681636E-3,1.4659915E3,7.857461E0,3.043478E-1,9.157377E0,1.4553284E3,3.1111112E-1,1.5495771E3,2.7348327E-3,-8.924123E-3,-2.3745394E-3,3.7005984E-3,5.4177684E-3,-3.8598895E-3,1.3038618E-3,-9.459239E-3,2.7402174E-3,-6.7892415E-3,9.1892425E-3,3.4246861E-4],"split_indices":[13,7,8,21,11,0,0,8,10,7,0,10,0,0,0,0,0,0,0,0,0,0,0,0,0],"split_type":[0,0,0,0,0,0,0,0,0,0,0,0,0,0,0,0,0,0,0,0,0,0,0,0,0],"sum_hessian":[6.793367E1,4.7111786E1,2.0821884E1,3.0556911E1,1.6554874E1,1.2347491E0,1.9587133E1,4.722832E0,2.5834078E1,3.0397084E0,1.3515166E1,3.3100095E0,1.6277124E1,1.3026975E0,3.4201345E0,1.1037575E1,1.4796504E1,1.6358272E0,1.4038813E0,1.5982304E0,1.1916936E1,2.047416E0,1.2625934E0,1.3605383E1,2.6717417E0],"tree_param":{"num_deleted":"0","num_feature":"23","num_nodes":"25","size_leaf_vector":"1"}},{"base_weights":[-5.2544683E-2,3.4558415E-2,-6.9152933E-1,-3.6925085E-2,1.0815728E-2,1.809124E-3,-9.579037E-1,9.2907846E-2,-3.4873155E-1,-1.2360072E-2,2.6582915E-3,-2.0737743E-3,2.5645723E-3,8.208981E-3,-4.878753E-3],"categories":[],"categories_nodes":[],"categories_segments":[],"categories_sizes":[],"default_left":[0,0,0,0,0,0,0,0,0,0,0,0,0,0,0],"id":41,"left_children":[1,3,5,7,-1,-1,9,11,13,-1,-1,-1,-1,-1,-1],"loss_changes":[3.8170285E0,4.600053E0,2.0843284E0,2.3804445E0,0E0,0E0,2.5265827E0,2.1030774E0,3.2097492E0,0E0,0E0,0E0,0E0,0E0,0E0],"parents":[2147483647,0,0,1,1,2,2,3,3,6,6,7,7,8,8],"right_children":[2,4,6,8,-1,-1,10,12,14,-1,-1,-1,-1,-1,-1],"split_conditions":[1.5341426E2,1.2358974E1,8.43299E0,3.6E1,1.0815728E-2,1.809124E-3,9.694073E0,-2.8514347E1,1.4553284E3,-1.2360072E-2,2.6582915E-3,-2.0737743E-3,2.5645723E-3,8.208981E-3,-4.878753E-3],"split_indices":[5,22,7,12,0,0,7,2,0,0,0,0,0,0,0],"split_type":[0,0,0,0,0,0,0,0,0,0,0,0,0,0,0],"sum_hessian":[6.715123E1,5.9928062E1,7.2231684E0,5.700112E1,2.9269414E0,1.764577E0,5.4585915E0,4.073961E1,1.626151E1,4.4396205E0,1.0189712E0,1.4270409E1,2.64692E1,1.2079501E0,1.505356E1],"tree_param":{"num_deleted":"0","num_feature":"23","num_nodes":"15","size_leaf_vector":"1"}},{"base_weights":[1.531559E-2,-2.7094883E-1,5.7050157E-1,-1.4811345E-2,-7.333705E-1,8.942219E-1,1.0765574E-2,6.325672E-1,-1.5887389E-1,-8.607466E-1,3.6726233E-3,1.1430795E0,1.9917895E-1,-2.846117E-1,9.280252E-3,-1.5359794E-3,8.7054325E-3,-8.664177E-3,-1.685018E-4,-1.2225809E-2,-4.3542925E-3,6.132446E-4,1.2508222E-2,-6.2236073E-3,7.037836E-3,1.3941793E-4,-9.021471E-3],"categories":[],"categories_nodes":[],"categories_segments":[],"categories_sizes":[],"default_left":[0,0,0,0,0,0,0,0,0,0,0,0,0,0,0,0,0,0,0,0,0,0,0,0,0,0,0],"id":42,"left_children":[1,3,5,7,9,11,13,15,17,19,-1,21,23,25,-1,-1,-1,-1,-1,-1,-1,-1,-1,-1,-1,-1,-1],"loss_changes":[1.1191186E1,5.496334E0,4.3294897E0,2.9863265E0,2.6368246E0,2.3944864E0,2.9157665E0,1.2250268E0,2.609118E0,1.7969265E0,0E0,1.1997662E0,2.596959E0,1.5185413E0,0E0,0E0,0E0,0E0,0E0,0E0,0E0,0E0,0E0,0E0,0E0,0E0,0E0],"parents":[2147483647,0,0,1,1,2,2,3,3,4,4,5,5,6,6,7,7,8,8,9,9,11,11,12,12,13,13],"right_children":[2,4,6,8,10,12,14,16,18,20,-1,22,24,26,-1,-1,-1,-1,-1,-1,-1,-1,-1,-1,-1,-1,-1],"split_conditions":[3.3E1,8.528735E0,1.5329165E3,7.8163266E0,1.2385715E1,1.4953789E2,8.503864E0,7.505017E0,9.227586E0,-2E0,3.6726233E-3,1.0567686E2,2E0,1.2884616E2,9.280252E-3,-1.5359794E-3,8.7054325E-3,-8.664177E-3,-1.685018E-4,-1.2225809E-2,-4.3542925E-3,6.132446E-4,1.2508222E-2,-6.2236073E-3,7.037836E-3,1.3941793E-4,-9.021471E-3],"split_indices":[13,7,1,8,21,5,8,7,21,16,0,19,16,19,0,0,0,0,0,0,0,0,0,0,0,0,0],"split_type":[0,0,0,0,0,0,0,0,0,0,0,0,0,0,0,0,0,0,0,0,0,0,0,0,0,0,0],"sum_hessian":[6.8443214E1,4.5496384E1,2.2946833E1,2.99429E1,1.5553482E1,1.4159932E1,8.7869E0,4.83314E0,2.510976E1,1.4135531E1,1.417951E0,9.952027E0,4.2079053E0,7.1682763E0,1.6186234E0,1.2054485E0,3.6276913E0,3.344981E0,2.176478E1,6.624929E0,7.5106025E0,1.0435702E0,8.908457E0,1.5123335E0,2.695572E0,5.4910154E0,1.6772609E0],"tree_param":{"num_deleted":"0","num_feature":"23","num_nodes":"27","size_leaf_vector":"1"}},{"base_weights":[2.9695626E-2,-2.5502825E-1,5.535331E-1,5.954563E-2,-6.4425796E-1,8.3202755E-1,6.4980965E-3,-5.721787E-2,6.873694E-1,-1.2875068E-1,-9.6145374E-1,9.601147E-1,-1.534049E-3,-3.283982E-1,5.1259243E-1,2.8695273E-3,-2.7821197E-3,-2.293768E-3,1.0484339E-2,-8.13328E-3,1.8045383E-3,-1.1526144E-2,5.727108E-4,1.0629294E-3,1.1052417E-2,3.7449824E-3,-5.5715763E-3,8.490404E-3,-1.5227037E-3],"categories":[],"categories_nodes":[],"categories_segments":[],"categories_sizes":[],"default_left":[0,0,0,0,0,0,0,0,0,0,0,0,0,0,0,0,0,0,0,0,0,0,0,0,0,0,0,0,0],"id":43,"left_children":[1,3,5,7,9,11,13,15,17,19,21,23,-1,25,27,-1,-1,-1,-1,-1,-1,-1,-1,-1,-1,-1,-1,-1,-1],"loss_changes":[1.0647178E1,5.709841E0,3.8214984E0,1.984311E0,3.2753754E0,2.2473154E0,1.7754463E0,1.851608E0,1.6431196E0,2.0673316E0,2.5420704E0,1.7240639E0,0E0,1.2241791E0,1.0612769E0,0E0,0E0,0E0,0E0,0E0,0E0,0E0,0E0,0E0,0E0,0E0,0E0,0E0,0E0],"parents":[2147483647,0,0,1,1,2,2,3,3,4,4,5,5,6,6,7,7,8,8,9,9,10,10,11,11,13,13,14,14],"right_children":[2,4,6,8,10,12,14,16,18,20,22,24,-1,26,28,-1,-1,-1,-1,-1,-1,-1,-1,-1,-1,-1,-1,-1,-1],"split_conditions":[3.2E1,1.20103096E2,1.5347871E3,1.3819444E2,1.0078651E1,1.5780142E2,8.7739725E0,1.1872146E2,1.3774835E1,-8E0,1.192638E1,1E0,-1.534049E-3,1E0,2E0,2.8695273E-3,-2.7821197E-3,-2.293768E-3,1.0484339E-2,-8.13328E-3,1.8045383E-3,-1.1526144E-2,5.727108E-4,1.0629294E-3,1.1052417E-2,3.7449824E-3,-5.5715763E-3,8.490404E-3,-1.5227037E-3],"split_indices":[13,20,1,19,21,5,7,19,6,16,22,15,0,16,14,0,0,0,0,0,0,0,0,0,0,0,0,0,0],"split_type":[0,0,0,0,0,0,0,0,0,0,0,0,0,0,0,0,0,0,0,0,0,0,0,0,0,0,0,0,0],"sum_hessian":[6.943969E1,4.53199E1,2.4119787E1,2.5532032E1,1.9787868E1,1.56376915E1,8.482095E0,2.2294529E1,3.237503E0,8.073195E0,1.1714673E1,1.3861639E1,1.7760532E0,5.315679E0,3.166416E0,8.601034E0,1.3693496E1,1.0178622E0,2.2196407E0,2.0046098E0,6.068585E0,9.753102E0,1.9615703E0,2.2654984E0,1.159614E1,1.1487857E0,4.1668935E0,1.9185396E0,1.2478763E0],"tree_param":{"num_deleted":"0","num_feature":"23","num_nodes":"29","size_leaf_vector":"1"}},{"base_weights":[5.6640697E-3,-2.2312255E-1,5.0331867E-1,2.6380712E-2,-7.1334624E-1,-8.50062E-3,6.419864E-1,-5.2716637E-1,1.3640852E-1,1.1756739E-1,-8.802724E-1,-2.6225694E-3,7.587116E-1,-8.523975E-3,8.987812E-4,7.083501E-3,4.599779E-5,-4.9290224E-3,7.0345188E-3,-9.713554E-3,6.655888E-4,-3.7185429E-3,8.527165E-3],"categories":[],"categories_nodes":[],"categories_segments":[],"categories_sizes":[],"default_left":[0,0,0,0,0,0,0,0,0,0,0,0,0,0,0,0,0,0,0,0,0,0,0],"id":44,"left_children":[1,3,5,7,9,-1,11,13,15,17,19,-1,21,-1,-1,-1,-1,-1,-1,-1,-1,-1,-1],"loss_changes":[7.831552E0,5.7844286E0,4.6105804E0,2.0332751E0,2.3136997E0,0E0,2.3327637E0,1.1894398E0,2.0818038E0,1.6156946E0,1.2191601E0,0E0,2.2473068E0,0E0,0E0,0E0,0E0,0E0,0E0,0E0,0E0,0E0,0E0],"parents":[2147483647,0,0,1,1,2,2,3,3,4,4,6,6,7,7,8,8,9,9,10,10,12,12],"right_children":[2,4,6,8,10,-1,12,14,16,18,20,-1,22,-1,-1,-1,-1,-1,-1,-1,-1,-1,-1],"split_conditions":[3.4E1,8.567742E0,7.494585E0,9.145162E0,2E-1,-8.50062E-3,7.8461537E0,3E0,1.112782E2,1.3414303E0,1.2741832E0,-2.6225694E-3,-3.0107067E1,-8.523975E-3,8.987812E-4,7.083501E-3,4.599779E-5,-4.9290224E-3,7.0345188E-3,-9.713554E-3,6.655888E-4,-3.7185429E-3,8.527165E-3],"split_indices":[13,7,8,21,11,0,7,16,19,6,9,0,6,0,0,0,0,0,0,0,0,0,0],"split_type":[0,0,0,0,0,0,0,0,0,0,0,0,0,0,0,0,0,0,0,0,0,0,0],"sum_hessian":[6.6797935E1,4.6138393E1,2.0659542E1,3.1203373E1,1.493502E1,1.4432628E0,1.9216278E1,4.54523E0,2.6658144E1,2.547909E0,1.2387112E1,2.0544138E0,1.7161865E1,2.7266505E0,1.8185792E0,4.173689E0,2.2484455E1,1.3254958E0,1.2224131E0,1.1276442E1,1.1106699E0,1.0905457E0,1.607132E1],"tree_param":{"num_deleted":"0","num_feature":"23","num_nodes":"23","size_leaf_vector":"1"}},{"base_weights":[-3.690153E-2,-3.0368873E-1,4.8856708E-1,4.078447E-1,-4.30958E-1,-6.975296E-3,6.020411E-1,8.592821E-3,-4.31286E-3,-1.5472504E-1,-7.1036524E-1,-1.5084463E-1,7.204305E-1,-2.5693895E-3,6.343405E-3,-9.079814E-3,3.0578035E-3,-6.915021E-3,3.6261063E-3,9.005618E-3,2.641921E-3],"categories":[],"categories_nodes":[],"categories_segments":[],"categories_sizes":[],"default_left":[0,0,0,0,0,0,0,0,0,0,0,0,0,0,0,0,0,0,0,0,0],"id":45,"left_children":[1,3,5,7,9,-1,11,-1,-1,13,15,17,19,-1,-1,-1,-1,-1,-1,-1,-1],"loss_changes":[1.0012889E1,4.457947E0,3.6607227E0,3.2831464E0,3.0235734E0,0E0,2.1153355E0,0E0,0E0,1.912674E0,4.274706E0,1.3294975E0,1.375083E0,0E0,0E0,0E0,0E0,0E0,0E0,0E0,0E0],"parents":[2147483647,0,0,1,1,2,2,3,3,4,4,6,6,9,9,10,10,11,11,12,12],"right_children":[2,4,6,8,10,-1,12,-1,-1,14,16,18,20,-1,-1,-1,-1,-1,-1,-1,-1],"split_conditions":[3.3E1,7.857461E0,7.494585E0,2.9E1,2E1,-6.975296E-3,1E0,8.592821E-3,-4.31286E-3,1.5513834E2,1.3E1,3.9E1,1.5347871E3,-2.5693895E-3,6.343405E-3,-9.079814E-3,3.0578035E-3,-6.915021E-3,3.6261063E-3,9.005618E-3,2.641921E-3],"split_indices":[13,8,8,12,13,0,15,0,0,4,16,13,1,0,0,0,0,0,0,0,0],"split_type":[0,0,0,0,0,0,0,0,0,0,0,0,0,0,0,0,0,0,0,0,0],"sum_hessian":[6.9366196E1,4.6287495E1,2.3078697E1,6.688582E0,3.959891E1,1.5657305E0,2.1512968E1,4.3333187E0,2.3552632E0,2.0693886E1,1.8905027E1,2.8859441E0,1.8627024E1,1.8917702E1,1.7761841E0,1.5916158E1,2.9888687E0,1.2368281E0,1.649116E0,1.2656226E1,5.970797E0],"tree_param":{"num_deleted":"0","num_feature":"23","num_nodes":"21","size_leaf_vector":"1"}},{"base_weights":[-1.3828083E-2,-6.5380536E-2,1.0441879E-2,8.384071E-2,-4.4558212E-1,-2.2314939E-1,3.1026176E-1,1.1171985E-1,-8.3046675E-1,-6.852459E-3,9.623276E-5,5.454611E-3,-2.0702858E-3,-1.8108702E-3,7.0834323E-3,2.243469E-3,-1.12637235E-2],"categories":[],"categories_nodes":[],"categories_segments":[],"categories_sizes":[],"default_left":[0,0,0,0,0,0,0,0,0,0,0,0,0,0,0,0,0],"id":46,"left_children":[1,3,-1,5,7,9,11,13,15,-1,-1,-1,-1,-1,-1,-1,-1],"loss_changes":[3.8539302E0,3.8455145E0,0E0,3.4783366E0,4.1848173E0,2.3084898E0,3.5980728E0,1.6436774E0,3.811802E0,0E0,0E0,0E0,0E0,0E0,0E0,0E0,0E0],"parents":[2147483647,0,0,1,1,3,3,4,4,5,5,6,6,7,7,8,8],"right_children":[2,4,-1,6,8,10,12,14,16,-1,-1,-1,-1,-1,-1,-1,-1],"split_conditions":[1.0037914E1,1.0868853E1,1.0441879E-2,1.5009077E3,1.3675676E2,-5E0,1.5525553E3,9.888E0,2.413793E-1,-6.852459E-3,9.623276E-5,5.454611E-3,-2.0702858E-3,-1.8108702E-3,7.0834323E-3,2.243469E-3,-1.12637235E-2],"split_indices":[7,21,0,0,4,16,0,22,10,0,0,0,0,0,0,0,0],"split_type":[0,0,0,0,0,0,0,0,0,0,0,0,0,0,0,0,0],"sum_hessian":[6.8406494E1,6.6122826E1,2.2836692E0,4.804546E1,1.8077366E1,2.040035E1,2.764511E1,7.6745567E0,1.0402808E1,6.1827044E0,1.4217647E1,1.8966873E1,8.678237E0,5.615231E0,2.0593255E0,2.331949E0,8.07086E0],"tree_param":{"num_deleted":"0","num_feature":"23","num_nodes":"17","size_leaf_vector":"1"}},{"base_weights":[2.6304388E-2,-2.3843804E-1,6.247355E-1,-4.2569593E-2,-5.802436E-1,-7.20988E-3,7.4618345E-1,-2.6385257E-1,2.9203779E-1,-1.4183015E-1,-8.790868E-1,-2.8812974E-3,8.213223E-1,-4.111164E-3,6.4255423E-3,7.888264E-6,7.06968E-3,-5.602861E-3,4.88019E-3,-1.0899133E-2,1.5263044E-3,6.875759E-4,9.421556E-3],"categories":[],"categories_nodes":[],"categories_segments":[],"categories_sizes":[],"default_left":[0,0,0,0,0,0,0,0,0,0,0,0,0,0,0,0,0,0,0,0,0,0,0],"id":47,"left_children":[1,3,5,7,9,-1,11,13,15,17,19,-1,21,-1,-1,-1,-1,-1,-1,-1,-1,-1,-1],"loss_changes":[1.095503E1,3.1896005E0,4.0021563E0,2.416846E0,2.156423E0,0E0,1.7857676E0,2.8732681E0,1.5769718E0,2.4477658E0,2.376513E0,0E0,1.6486654E0,0E0,0E0,0E0,0E0,0E0,0E0,0E0,0E0,0E0,0E0],"parents":[2147483647,0,0,1,1,2,2,3,3,4,4,6,6,7,7,8,8,9,9,10,10,12,12],"right_children":[2,4,6,8,10,-1,12,14,16,18,20,-1,22,-1,-1,-1,-1,-1,-1,-1,-1,-1,-1],"split_conditions":[3.5E1,8.528735E0,7.494585E0,1E0,3.0769232E-1,-7.20988E-3,-3.0107067E1,3E1,5.240704E1,9.157377E0,5.3125E-1,-2.8812974E-3,1.2870967E2,-4.111164E-3,6.4255423E-3,7.888264E-6,7.06968E-3,-5.602861E-3,4.88019E-3,-1.0899133E-2,1.5263044E-3,6.875759E-4,9.421556E-3],"split_indices":[13,7,8,17,10,0,6,13,2,7,10,0,5,0,0,0,0,0,0,0,0,0,0],"split_type":[0,0,0,0,0,0,0,0,0,0,0,0,0,0,0,0,0,0,0,0,0,0,0],"sum_hessian":[6.720718E1,4.701124E1,2.0195936E1,3.0600471E1,1.6410767E1,1.2631215E0,1.8932816E1,1.854664E1,1.2053832E1,7.2497406E0,9.161027E0,1.0902675E0,1.7842548E1,1.6424574E1,2.1220663E0,7.6711664E0,4.3826656E0,4.4221916E0,2.8275492E0,7.5598087E0,1.6012177E0,2.6855636E0,1.5156984E1],"tree_param":{"num_deleted":"0","num_feature":"23","num_nodes":"23","size_leaf_vector":"1"}},{"base_weights":[1.0939663E-2,7.160112E-2,-5.920913E-1,-6.0932604E-3,9.4008595E-3,9.25376E-3,-1.038288E0,1.6119911E-1,-4.250653E-1,-1.3495519E-2,-7.118333E-4,-3.9239594E-4,4.112599E-3,5.8034114E-3,-6.1216997E-3],"categories":[],"categories_nodes":[],"categories_segments":[],"categories_sizes":[],"default_left":[0,0,0,0,0,0,0,0,0,0,0,0,0,0,0],"id":48,"left_children":[1,3,5,7,-1,-1,9,11,13,-1,-1,-1,-1,-1,-1],"loss_changes":[2.62313E0,4.3912187E0,5.399843E0,4.319508E0,0E0,0E0,1.570888E0,2.224916E0,3.6626415E0,0E0,0E0,0E0,0E0,0E0,0E0],"parents":[2147483647,0,0,1,1,2,2,3,3,6,6,7,7,8,8],"right_children":[2,4,6,8,-1,-1,10,12,14,-1,-1,-1,-1,-1,-1],"split_conditions":[1.5649606E2,1.1967391E1,-8.32681E-1,3.6E1,9.4008595E-3,9.25376E-3,1.5670732E2,1.3224806E2,1.9354838E-1,-1.3495519E-2,-7.118333E-4,-3.9239594E-4,4.112599E-3,5.8034114E-3,-6.1216997E-3],"split_indices":[5,22,9,12,0,0,4,4,11,0,0,0,0,0,0],"split_type":[0,0,0,0,0,0,0,0,0,0,0,0,0,0,0],"sum_hessian":[6.954903E1,6.3992966E1,5.556061E0,5.9649704E1,4.3432603E0,1.0184618E0,4.537599E0,4.3068165E1,1.6581541E1,3.1335926E0,1.4040062E0,2.4374014E1,1.869415E1,2.2718844E0,1.4309657E1],"tree_param":{"num_deleted":"0","num_feature":"23","num_nodes":"15","size_leaf_vector":"1"}},{"base_weights":[1.4257694E-2,-9.225624E-2,4.432515E-1,-8.261409E-3,4.9302024E-3,-1.7976175E-1,7.2864336E-1,-1.7346635E-1,2.8362277E-1,-5.6383046E-3,3.4271772E-3,-2.948444E-3,8.917685E-1,7.3325825E-3,-2.8910649E-3,1.1696325E-3,8.8697355E-3,-5.487216E-4,1.0291767E-2],"categories":[],"categories_nodes":[],"categories_segments":[],"categories_sizes":[],"default_left":[0,0,0,0,0,0,0,0,0,0,0,0,0,0,0,0,0,0,0],"id":49,"left_children":[1,3,5,-1,7,9,11,13,15,-1,-1,-1,17,-1,-1,-1,-1,-1,-1],"loss_changes":[3.2095122E0,4.025264E0,2.6140187E0,0E0,2.5738924E0,1.2346021E0,1.8950348E0,3.5234761E0,1.9273028E0,0E0,0E0,0E0,1.1855631E0,0E0,0E0,0E0,0E0,0E0,0E0],"parents":[2147483647,0,0,1,1,2,2,4,4,5,5,6,6,7,7,8,8,12,12],"right_children":[2,4,6,-1,8,10,12,14,16,-1,-1,-1,18,-1,-1,-1,-1,-1,-1],"split_conditions":[1E1,-1.5948905E1,-5.107644E1,-8.261409E-3,1E0,-1.3438556E1,2.6923078E-1,1.4553284E3,1.5137363E2,-5.6383046E-3,3.4271772E-3,-2.948444E-3,7.6568046E0,7.3325825E-3,-2.8910649E-3,1.1696325E-3,8.8697355E-3,-5.487216E-4,1.0291767E-2],"split_indices":[16,6,2,0,17,6,10,0,5,0,0,0,7,0,0,0,0,0,0],"split_type":[0,0,0,0,0,0,0,0,0,0,0,0,0,0,0,0,0,0,0],"sum_hessian":[6.8344604E1,5.5379494E1,1.2965107E1,5.5990176E0,4.978048E1,4.1895027E0,8.775603E0,3.0581947E1,1.919853E1,2.368962E0,1.8205408E0,1.0953891E0,7.6802144E0,2.8550308E0,2.7726915E1,1.59787E1,3.2198315E0,1.0496397E0,6.6305747E0],"tree_param":{"num_deleted":"0","num_feature":"23","num_nodes":"19","size_leaf_vector":"1"}},{"base_weights":[1.0886861E-2,-2.0656626E-1,5.105813E-1,4.0593266E-2,-5.1481646E-1,-3.4945432E-2,8.905437E-1,-6.5906118E-3,1.2834077E-1,1.4743482E-1,-6.712904E-1,5.029194E-1,-4.792988E-1,1.0578796E-2,8.099351E-2,1.3595373E-4,7.6254755E-3,-2.9172092E-3,7.1461336E-3,-8.629675E-3,1.3354261E-3,-1.5550124E-3,7.974217E-3,-7.941293E-3,4.528733E-3,7.3137674E-3,-5.7194135E-3],"categories":[],"categories_nodes":[],"categories_segments":[],"categories_sizes":[],"default_left":[0,0,0,0,0,0,0,0,0,0,0,0,0,0,0,0,0,0,0,0,0,0,0,0,0,0,0],"id":50,"left_children":[1,3,5,7,9,11,13,-1,15,17,19,21,23,-1,25,-1,-1,-1,-1,-1,-1,-1,-1,-1,-1,-1,-1],"loss_changes":[7.670662E0,3.7710946E0,4.4666877E0,1.8186775E0,2.3764195E0,2.570756E0,1.6281519E0,0E0,1.8769919E0,1.4589207E0,2.8855095E0,1.0737128E0,2.0764332E0,0E0,1.7984506E0,0E0,0E0,0E0,0E0,0E0,0E0,0E0,0E0,0E0,0E0,0E0,0E0],"parents":[2147483647,0,0,1,1,2,2,3,3,4,4,5,5,6,6,8,8,9,9,10,10,11,11,12,12,14,14],"right_children":[2,4,6,8,10,12,14,-1,16,18,20,22,24,-1,26,-1,-1,-1,-1,-1,-1,-1,-1,-1,-1,-1,-1],"split_conditions":[3.4E1,1.20103096E2,8.46493E0,1.0304878E2,1.9354838E-1,1.5347871E3,1.6E1,-6.5906118E-3,1.3819444E2,1.764706E-1,3.1E1,1.0178572E1,1.5910359E3,1.0578796E-2,1.0518518E1,1.3595373E-4,7.6254755E-3,-2.9172092E-3,7.1461336E-3,-8.629675E-3,1.3354261E-3,-1.5550124E-3,7.974217E-3,-7.941293E-3,4.528733E-3,7.3137674E-3,-5.7194135E-3],"split_indices":[13,20,8,20,11,1,16,0,19,11,13,21,1,0,21,0,0,0,0,0,0,0,0,0,0,0,0],"split_type":[0,0,0,0,0,0,0,0,0,0,0,0,0,0,0,0,0,0,0,0,0,0,0,0,0,0,0],"sum_hessian":[6.862254E1,4.822359E1,2.039895E1,2.7245813E1,2.097778E1,8.747646E0,1.1651305E1,2.3106852E0,2.4935127E1,4.0202923E0,1.6957487E1,3.89779E0,4.8498564E0,9.401286E0,2.2500184E0,2.1979815E1,2.9553137E0,2.5395947E0,1.4806978E0,1.3637404E1,3.320083E0,1.3504863E0,2.5473037E0,3.7361138E0,1.1137424E0,1.0670254E0,1.1829929E0],"tree_param":{"num_deleted":"0","num_feature":"23","num_nodes":"27","size_leaf_vector":"1"}},{"base_weights":[-3.0756432E-3,-2.6968092E-1,5.100245E-1,1.42741995E-2,-7.7116615E-1,7.4100095E-1,5.588961E-2,1.1968545E-1,-5.0698406E-1,3.2323682E-1,-9.9056387E-1,1.0082247E0,-3.2244712E-2,-2.5320473E-1,9.096739E-3,5.935927E-3,-1.15236675E-4,5.9854926E-4,-9.035006E-3,-3.5809746E-3,7.802823E-3,-1.0849133E-2,5.34161E-4,1.3111818E-4,1.2221931E-2,-9.036586E-3,6.1496813E-3,-5.4128836E-3,6.9099944E-3],"categories":[],"categories_nodes":[],"categories_segments":[],"categories_sizes":[],"default_left":[0,0,0,0,0,0,0,0,0,0,0,0,0,0,0,0,0,0,0,0,0,0,0,0,0,0,0,0,0],"id":51,"left_children":[1,3,5,7,9,11,13,15,17,19,21,23,25,27,-1,-1,-1,-1,-1,-1,-1,-1,-1,-1,-1,-1,-1,-1,-1],"loss_changes":[9.56635E0,6.563155E0,2.4670272E0,1.7288386E0,4.318674E0,3.2910767E0,2.6433964E0,1.6273983E0,1.2448081E0,1.380185E0,1.4485464E0,2.4859972E0,3.3865252E0,2.4129252E0,0E0,0E0,0E0,0E0,0E0,0E0,0E0,0E0,0E0,0E0,0E0,0E0,0E0,0E0,0E0],"parents":[2147483647,0,0,1,1,2,2,3,3,4,4,5,5,6,6,7,7,8,8,9,9,10,10,11,11,12,12,13,13],"right_children":[2,4,6,8,10,12,14,16,18,20,22,24,26,28,-1,-1,-1,-1,-1,-1,-1,-1,-1,-1,-1,-1,-1,-1,-1],"split_conditions":[3.3E1,8.567742E0,1.5347871E3,4.5E1,2E-1,1.4990176E2,8.503864E0,7.857461E0,4.335839E1,2.6E1,1.2741832E0,1.3007246E2,3E0,1.5910359E3,9.096739E-3,5.935927E-3,-1.15236675E-4,5.9854926E-4,-9.035006E-3,-3.5809746E-3,7.802823E-3,-1.0849133E-2,5.34161E-4,1.3111818E-4,1.2221931E-2,-9.036586E-3,6.1496813E-3,-5.4128836E-3,6.9099944E-3],"split_indices":[13,7,1,12,11,5,8,8,2,12,9,5,16,1,0,0,0,0,0,0,0,0,0,0,0,0,0,0,0],"split_type":[0,0,0,0,0,0,0,0,0,0,0,0,0,0,0,0,0,0,0,0,0,0,0,0,0,0,0,0,0],"sum_hessian":[6.792644E1,4.5012493E1,2.2913946E1,2.9359724E1,1.5652769E1,1.477009E1,8.143856E0,2.5061968E1,4.2977557E0,2.5348918E0,1.3117877E1,1.0750849E1,4.019242E0,6.49567E0,1.648186E0,4.670135E0,2.0391832E1,2.1184216E0,2.1793342E0,1.1046479E0,1.4302438E0,1.1994655E1,1.123223E0,2.090366E0,8.660482E0,1.5440655E0,2.4751763E0,5.304081E0,1.1915888E0],"tree_param":{"num_deleted":"0","num_feature":"23","num_nodes":"29","size_leaf_vector":"1"}},{"base_weights":[5.9014666E-3,-2.716535E-1,5.489838E-1,-1.0754988E-2,-6.872032E-1,8.4679383E-1,2.1196008E-2,9.2982305E-3,-1.0624202E-1,-1.1088352E-1,-9.527455E-1,1.0514792E0,1.860167E-1,-3.086833E-1,9.50811E-3,-2.1309317E-3,6.756351E-3,-5.777206E-3,7.1667884E-3,-3.1281312E-3,-1.1743137E-2,1.5494252E-5,1.2166317E-2,-3.1462116E-3,9.272842E-3,2.333061E-3,-7.216153E-3],"categories":[],"categories_nodes":[],"categories_segments":[],"categories_sizes":[],"default_left":[0,0,0,0,0,0,0,0,0,0,0,0,0,0,0,0,0,0,0,0,0,0,0,0,0,0,0],"id":52,"left_children":[1,3,5,7,9,11,13,-1,15,17,19,21,23,25,-1,-1,-1,-1,-1,-1,-1,-1,-1,-1,-1,-1,-1],"loss_changes":[1.07843275E1,5.127343E0,3.7849097E0,2.8030965E0,2.6874075E0,1.8928509E0,3.2843685E0,0E0,2.5026705E0,3.0752935E0,1.3855057E0,2.0050907E0,2.0978591E0,1.9483845E0,0E0,0E0,0E0,0E0,0E0,0E0,0E0,0E0,0E0,0E0,0E0,0E0,0E0],"parents":[2147483647,0,0,1,1,2,2,3,3,4,4,5,5,6,6,8,8,9,9,10,10,11,11,12,12,13,13],"right_children":[2,4,6,8,10,12,14,-1,16,18,20,22,24,26,-1,-1,-1,-1,-1,-1,-1,-1,-1,-1,-1,-1,-1],"split_conditions":[3.3E1,8.528735E0,1.5329165E3,7.293839E0,2E1,1.4990176E2,8.503864E0,9.2982305E-3,1.152518E1,2E0,8.415879E0,1.4659915E3,1.5670732E2,2.5E1,9.50811E-3,-2.1309317E-3,6.756351E-3,-5.777206E-3,7.1667884E-3,-3.1281312E-3,-1.1743137E-2,1.5494252E-5,1.2166317E-2,-3.1462116E-3,9.272842E-3,2.333061E-3,-7.216153E-3],"split_indices":[13,7,1,8,13,5,8,0,22,15,8,0,4,12,0,0,0,0,0,0,0,0,0,0,0,0,0],"split_type":[0,0,0,0,0,0,0,0,0,0,0,0,0,0,0,0,0,0,0,0,0,0,0,0,0,0,0],"sum_hessian":[6.955548E1,4.636126E1,2.3194216E1,2.9110453E1,1.7250809E1,1.44411955E1,8.753021E0,1.8776183E0,2.7232834E1,5.888428E0,1.1362381E1,1.0574357E1,3.8668387E0,6.953482E0,1.7995386E0,2.4598648E1,2.634186E0,3.95773E0,1.9306984E0,3.542567E0,7.8198137E0,1.5744476E0,8.999909E0,2.6515772E0,1.2152613E0,3.1949658E0,3.7585166E0],"tree_param":{"num_deleted":"0","num_feature":"23","num_nodes":"27","size_leaf_vector":"1"}},{"base_weights":[1.926984E-2,-1.8776532E-1,5.789334E-1,4.0450823E-2,-5.781303E-1,9.042962E-1,5.172847E-3,-4.7252074E-1,1.4182016E-1,2.7183613E-3,-7.292536E-1,1.0278658E0,-2.2025302E-3,-2.968661E-1,8.169262E-3,-7.7348505E-3,1.159987E-3,2.3978122E-3,-3.097027E-3,-8.48092E-3,3.9440575E-3,8.353051E-4,1.1674792E-2,2.4916015E-3,-7.1968143E-3],"categories":[],"categories_nodes":[],"categories_segments":[],"categories_sizes":[],"default_left":[0,0,0,0,0,0,0,0,0,0,0,0,0,0,0,0,0,0,0,0,0,0,0,0,0],"id":53,"left_children":[1,3,5,7,9,11,13,15,17,-1,19,21,-1,23,-1,-1,-1,-1,-1,-1,-1,-1,-1,-1,-1],"loss_changes":[8.09126E0,4.5707836E0,3.5139132E0,1.7906312E0,2.625596E0,1.8969574E0,2.161377E0,1.0993677E0,1.3324983E0,0E0,2.5132542E0,1.3538151E0,0E0,1.6655113E0,0E0,0E0,0E0,0E0,0E0,0E0,0E0,0E0,0E0,0E0,0E0],"parents":[2147483647,0,0,1,1,2,2,3,3,4,4,5,5,6,6,7,7,8,8,10,10,11,11,13,13],"right_children":[2,4,6,8,10,12,14,16,18,-1,20,22,-1,24,-1,-1,-1,-1,-1,-1,-1,-1,-1,-1,-1],"split_conditions":[3.6E1,8.528735E0,1.5347871E3,9.145162E0,2E-1,1.5780142E2,8.503864E0,2E0,4.5E1,2.7183613E-3,1.7153847E2,7.9772725E0,-2.2025302E-3,2.5E1,8.169262E-3,-7.7348505E-3,1.159987E-3,2.3978122E-3,-3.097027E-3,-8.48092E-3,3.9440575E-3,8.353051E-4,1.1674792E-2,2.4916015E-3,-7.1968143E-3],"split_indices":[13,7,1,21,11,5,8,16,12,0,19,8,0,12,0,0,0,0,0,0,0,0,0,0,0],"split_type":[0,0,0,0,0,0,0,0,0,0,0,0,0,0,0,0,0,0,0,0,0,0,0,0,0],"sum_hessian":[6.789233E1,5.0044117E1,1.784821E1,3.214677E1,1.7897345E1,1.1021917E1,6.8262925E0,4.700233E0,2.7446537E1,2.5811796E0,1.5316166E1,1.000816E1,1.0137577E0,5.437417E0,1.3888756E0,2.9019222E0,1.7983105E0,2.2938763E1,4.507775E0,1.4073039E1,1.2431269E0,1.4949204E0,8.51324E0,2.552201E0,2.885216E0],"tree_param":{"num_deleted":"0","num_feature":"23","num_nodes":"25","size_leaf_vector":"1"}},{"base_weights":[2.9411804E-2,-1.877829E-1,6.273258E-1,-7.343176E-2,-8.829809E-1,-3.025347E-1,8.25307E-1,8.305482E-2,-4.9429253E-1,3.745568E-4,-1.0805134E-2,-8.819631E-3,2.588929E-3,2.872692E-1,1.0456222E0,-5.99768E-3,2.0481911E-3,-7.971682E-3,2.239489E-3,5.25307E-3,-3.7689286E-3,1.2149517E-3,1.1807516E-2],"categories":[],"categories_nodes":[],"categories_segments":[],"categories_sizes":[],"default_left":[0,0,0,0,0,0,0,0,0,0,0,0,0,0,0,0,0,0,0,0,0,0,0],"id":54,"left_children":[1,3,5,7,9,11,13,15,17,-1,-1,-1,-1,19,21,-1,-1,-1,-1,-1,-1,-1,-1],"loss_changes":[8.991922E0,3.9811723E0,3.644164E0,2.9913373E0,1.3310752E0,1.5193138E0,1.5334368E0,2.9090755E0,2.8511524E0,0E0,0E0,0E0,0E0,1.1265111E0,1.1798725E0,0E0,0E0,0E0,0E0,0E0,0E0,0E0,0E0],"parents":[2147483647,0,0,1,1,2,2,3,3,4,4,5,5,6,6,7,7,8,8,13,13,14,14],"right_children":[2,4,6,8,10,12,14,16,18,-1,-1,-1,-1,20,22,-1,-1,-1,-1,-1,-1,-1,-1],"split_conditions":[3.6E1,1.5293005E2,7.8508472E0,4E-1,1.4691682E3,9.722628E0,-6.345179E0,9.24138E0,3E1,3.745568E-4,-1.0805134E-2,-8.819631E-3,2.588929E-3,1.4018692E2,1.0659341E2,-5.99768E-3,2.0481911E-3,-7.971682E-3,2.239489E-3,5.25307E-3,-3.7689286E-3,1.2149517E-3,1.1807516E-2],"split_indices":[13,5,8,11,0,21,6,21,13,0,0,0,0,20,20,0,0,0,0,0,0,0,0],"split_type":[0,0,0,0,0,0,0,0,0,0,0,0,0,0,0,0,0,0,0,0,0,0,0],"sum_hessian":[6.733409E1,4.989534E1,1.7438751E1,4.3796932E1,6.0984063E0,2.9684947E0,1.4470257E1,3.2511135E1,1.12858E1,1.2207047E0,4.8777018E0,1.1798677E0,1.788627E0,4.873195E0,9.597061E0,4.32606E0,2.8185074E1,7.861E0,3.4247994E0,3.7413514E0,1.1318439E0,1.4665673E0,8.130494E0],"tree_param":{"num_deleted":"0","num_feature":"23","num_nodes":"23","size_leaf_vector":"1"}},{"base_weights":[-1.5564144E-2,-2.406115E-1,5.181772E-1,-2.0172255E-2,-6.1547637E-1,6.4057016E-1,-3.339218E-1,3.502873E-1,-2.2537777E-1,1.9682041E-1,-7.7382946E-1,1.2271739E-1,8.3982015E-1,-8.147424E-3,2.7479262E-3,-2.15969E-3,5.1855454E-3,-5.034104E-3,7.6886517E-4,-2.7896452E-3,7.136972E-3,-8.704966E-3,2.9761016E-3,-3.0864598E-3,9.253013E-3,1.04965735E-2,1.9650639E-3],"categories":[],"categories_nodes":[],"categories_segments":[],"categories_sizes":[],"default_left":[0,0,0,0,0,0,0,0,0,0,0,0,0,0,0,0,0,0,0,0,0,0,0,0,0,0,0],"id":55,"left_children":[1,3,5,7,9,11,13,15,17,19,21,23,25,-1,-1,-1,-1,-1,-1,-1,-1,-1,-1,-1,-1,-1,-1],"loss_changes":[8.482865E0,4.088665E0,2.399291E0,2.533291E0,2.5118294E0,1.8228927E0,1.186572E0,1.2458688E0,1.8359028E0,1.1310964E0,1.8700132E0,2.4865682E0,1.5902176E0,0E0,0E0,0E0,0E0,0E0,0E0,0E0,0E0,0E0,0E0,0E0,0E0,0E0,0E0],"parents":[2147483647,0,0,1,1,2,2,3,3,4,4,5,5,6,6,7,7,8,8,9,9,10,10,11,11,12,12],"right_children":[2,4,6,8,10,12,14,16,18,20,22,24,26,-1,-1,-1,-1,-1,-1,-1,-1,-1,-1,-1,-1,-1,-1],"split_conditions":[3.5E1,8.528735E0,1.5598816E3,1.1872146E2,2E-1,1.4800259E3,3.346465E0,-3.304526E1,8.462108E0,3.6E1,1.6443298E2,1.0222222E1,1.1161765E1,-8.147424E-3,2.7479262E-3,-2.15969E-3,5.1855454E-3,-5.034104E-3,7.6886517E-4,-2.7896452E-3,7.136972E-3,-8.704966E-3,2.9761016E-3,-3.0864598E-3,9.253013E-3,1.04965735E-2,1.9650639E-3],"split_indices":[13,7,0,19,11,0,6,2,7,12,19,22,22,0,0,0,0,0,0,0,0,0,0,0,0,0,0],"split_type":[0,0,0,0,0,0,0,0,0,0,0,0,0,0,0,0,0,0,0,0,0,0,0,0,0,0,0],"sum_hessian":[6.858366E1,4.8628902E1,1.9954752E1,3.1285362E1,1.7343542E1,1.7665567E1,2.289185E0,1.090017E1,2.0385191E1,2.7898173E0,1.4553724E1,5.357434E0,1.2308133E1,1.0898519E0,1.1993331E0,2.4321077E0,8.468062E0,1.02715845E1,1.0113606E1,1.692323E0,1.0974944E0,1.352135E1,1.0323744E0,3.8848727E0,1.4725612E0,8.804593E0,3.5035396E0],"tree_param":{"num_deleted":"0","num_feature":"23","num_nodes":"27","size_leaf_vector":"1"}},{"base_weights":[-7.3797125E-3,-2.3833866E-1,5.1931137E-1,-2.8237736E-2,-6.007923E-1,-6.09766E-3,6.0678905E-1,-2.4825393E-1,2.7989542E-1,2.9046854E-1,-7.8990215E-1,6.9448054E-1,-1.130186E-1,-4.99129E-3,4.781172E-3,4.7177714E-3,-2.5792243E-3,-3.781E-3,6.687287E-3,-9.03796E-3,2.3568135E-3,2.8116405E-3,9.450854E-3,-9.343488E-3,7.425586E-3],"categories":[],"categories_nodes":[],"categories_segments":[],"categories_sizes":[],"default_left":[0,0,0,0,0,0,0,0,0,0,0,0,0,0,0,0,0,0,0,0,0,0,0,0,0],"id":56,"left_children":[1,3,5,7,9,-1,11,13,15,17,19,21,23,-1,-1,-1,-1,-1,-1,-1,-1,-1,-1,-1,-1],"loss_changes":[8.667586E0,3.753397E0,2.515767E0,2.265488E0,3.2833242E0,0E0,1.3828311E0,3.7790124E0,1.5627254E0,1.2398145E0,1.9903841E0,1.6567106E0,2.875089E0,0E0,0E0,0E0,0E0,0E0,0E0,0E0,0E0,0E0,0E0,0E0,0E0],"parents":[2147483647,0,0,1,1,2,2,3,3,4,4,6,6,7,7,8,8,9,9,10,10,11,11,12,12],"right_children":[2,4,6,8,10,-1,12,14,16,18,20,22,24,-1,-1,-1,-1,-1,-1,-1,-1,-1,-1,-1,-1],"split_conditions":[3.4E1,8.528735E0,7.494585E0,1E0,2E-1,-6.09766E-3,1.5780142E2,1.5245972E3,9.803572E0,1.2E1,1.2444907E0,8.46493E0,1E0,-4.99129E-3,4.781172E-3,4.7177714E-3,-2.5792243E-3,-3.781E-3,6.687287E-3,-9.03796E-3,2.3568135E-3,2.8116405E-3,9.450854E-3,-9.343488E-3,7.425586E-3],"split_indices":[13,7,8,17,11,0,5,1,21,13,9,8,17,0,0,0,0,0,0,0,0,0,0,0,0],"split_type":[0,0,0,0,0,0,0,0,0,0,0,0,0,0,0,0,0,0,0,0,0,0,0,0,0],"sum_hessian":[6.9236206E1,4.8511112E1,2.0725096E1,3.139215E1,1.7118961E1,1.0609426E0,1.9664152E1,1.84282E1,1.2963951E1,2.9027126E0,1.4216248E1,1.7560062E1,2.10409E0,1.3929913E1,4.498287E0,9.645456E0,3.318495E0,1.0490166E0,1.8536961E0,1.2902174E1,1.3140738E0,7.4292026E0,1.013086E1,1.0265564E0,1.0775337E0],"tree_param":{"num_deleted":"0","num_feature":"23","num_nodes":"25","size_leaf_vector":"1"}},{"base_weights":[-6.758149E-2,1.123142E-2,-7.688811E-1,-4.8234038E-2,7.0837187E-3,-1.3318331E-2,1.7108528E-1,-2.5621116E-1,2.103972E-1,-5.062792E-3,7.165367E-3,2.6832963E-3,-3.8439317E-3,3.8778074E-3,-3.9623855E-3],"categories":[],"categories_nodes":[],"categories_segments":[],"categories_sizes":[],"default_left":[0,0,0,0,0,0,0,0,0,0,0,0,0,0,0],"id":57,"left_children":[1,3,5,7,-1,-1,9,11,13,-1,-1,-1,-1,-1,-1],"loss_changes":[3.7675266E0,2.6095142E0,3.87113E0,3.1831818E0,0E0,0E0,1.643024E0,2.3015757E0,3.0030456E0,0E0,0E0,0E0,0E0,0E0,0E0],"parents":[2147483647,0,0,1,1,2,2,3,3,6,6,7,7,8,8],